svm_type one_class
kernel_type rbf
gamma 0.333333
nr_class 2
total_sv 9986
rho 0.532643
SV
0.5142611764388527 1:201 2:55 3:228 
0.5325867403731457 1:222 2:206 3:25 
0.4882314532187726 1:48 2:72 3:215 
0.3891135244041417 1:71 2:87 3:201 
0.5194538985863637 1:185 2:193 3:181 
0.5287738642250869 1:1 2:12 3:255 
0.5299447253829361 1:247 2:195 3:105 
0.53258542595339 1:225 2:35 3:21 
0.3916374205458223 1:57 2:74 3:248 
0.5326063938117866 1:171 2:139 3:216 
0.5325974086142077 1:0 2:126 3:111 
0.4357669463842851 1:28 2:70 3:221 
0.5325025169586889 1:187 2:67 3:159 
0.5327973007575204 1:240 2:243 3:12 
0.4697048956663485 1:76 2:1 3:233 
0.532550236850015 1:239 2:232 3:152 
0.5325990547654816 1:193 2:213 3:145 
0.4220807849294894 1:60 2:6 3:207 
0.5325822508179785 1:78 2:251 3:27 
0.5325941966929068 1:89 2:106 3:75 
0.315602642803674 1:73 2:69 3:210 
0.5325901558323829 1:208 2:129 3:120 
0.5326002664082967 1:124 2:112 3:100 
0.5326245863519112 1:241 2:166 3:237 
0.5319010182680486 1:57 2:15 3:200 
0.5326084879766484 1:186 2:48 3:89 
0.09835464096318196 1:24 2:29 3:253 
0.5326083869334801 1:252 2:149 3:176 
0.5280481870783257 1:15 2:91 3:201 
0.4164244999058552 1:18 2:24 3:224 
0.5173000567886594 1:100 2:30 3:230 
0.4916424131910845 1:96 2:64 3:209 
0.5325774567033017 1:122 2:87 3:65 
0.531308859616219 1:100 2:53 3:224 
0.4691787504659307 1:155 2:31 3:80 
0.5324942943129409 1:89 2:185 3:121 
0.4759050105888521 1:69 2:11 3:236 
0.4681204621885537 1:17 2:17 3:254 
0.359503879855297 1:26 2:33 3:217 
0.5127354583930044 1:25 2:13 3:235 
0.5326318681360362 1:176 2:157 3:124 
0.3519200376885525 1:0 2:28 3:244 
0.5309120367043718 1:213 2:199 3:82 
0.5323793484905435 1:26 2:89 3:208 
0.5328101426579546 1:247 2:44 3:255 
0.4692636791581892 1:1 2:29 3:227 
0.5127940483939534 1:32 2:32 3:221 
0.5258257321313754 1:227 2:41 3:86 
0.5326567882289784 1:216 2:190 3:193 
0.5326100290978395 1:76 2:127 3:241 
0.508298292589513 1:60 2:47 3:249 
0.3833673007803722 1:50 2:61 3:253 
0.3517335546621921 1:47 2:4 3:239 
0.5326204749256096 1:34 2:72 3:69 
0.5326259224014138 1:101 2:234 3:37 
0.5137966722688097 1:4 2:36 3:242 
0.523006274217154 1:14 2:58 3:222 
0.5318337199173755 1:11 2:44 3:251 
0.4933594919986016 1:73 2:90 3:238 
0.5330421382309332 1:146 2:177 3:4 
0.5327972442811693 1:8 2:75 3:115 
0.532610158625241 1:64 2:125 3:109 
0.5324795854124817 1:88 2:81 3:239 
0.4550698532904987 1:11 2:96 3:232 
0.5326558999869284 1:68 2:217 3:172 
0.5136970803082208 1:95 2:41 3:205 
0.532586138362276 1:145 2:49 3:252 
0.5321000771798861 1:79 2:57 3:241 
0.4910022010575794 1:97 2:79 3:252 
0.5326251750261652 1:172 2:217 3:122 
0.4933259457579145 1:12 2:85 3:255 
0.5329771779673524 1:45 2:180 3:163 
0.4992443403659306 1:61 2:51 3:217 
0.317813442620803 1:69 2:66 3:237 
0.5325963990064764 1:136 2:100 3:250 
0.5326241892159347 1:219 2:1 3:239 
0.5326205960341873 1:245 2:88 3:198 
0.5326246148106857 1:122 2:239 3:70 
0.5024151206458803 1:35 2:85 3:208 
0.5326057799521562 1:213 2:200 3:47 
0.5326139873801465 1:160 2:24 3:44 
0.5326152598617334 1:150 2:163 3:39 
0.519305529125519 1:2 2:69 3:205 
0.5330750616218223 1:165 2:135 3:229 
0.5331367495133621 1:104 2:33 3:177 
0.5326134347860434 1:114 2:112 3:116 
0.5325926912747969 1:171 2:68 3:163 
0.5325798812516023 1:58 2:121 3:71 
0.5326414740701755 1:141 2:1 3:156 
0.3519875931572625 1:32 2:109 3:176 
0.5326203169270975 1:61 2:247 3:211 
0.532625453552156 1:126 2:238 3:2 
0.5317831611475818 1:61 2:81 3:251 
0.2279160160863511 1:27 2:32 3:216 
0.3524775503193906 1:40 2:32 3:252 
0.5330740877091915 1:70 2:225 3:10 
0.5325033311214754 1:204 2:251 3:27 
0.532620516145676 1:137 2:66 3:167 
0.4198858832375796 1:27 2:93 3:221 
0.5318709321312807 1:213 2:26 3:154 
0.5325915743068848 1:227 2:200 3:60 
0.5317513452281606 1:87 2:125 3:50 
0.5325923479412271 1:218 2:191 3:205 
0.5326710240534401 1:105 2:148 3:164 
0.530745103665591 1:28 2:92 3:202 
0.4509425245025616 1:7 2:49 3:222 
0.5308403902317469 1:30 2:14 3:212 
0.532620339988519 1:0 2:210 3:131 
0.5326205750573962 1:111 2:141 3:84 
0.5327409472119444 1:148 2:149 3:191 
0.5256893090764529 1:59 2:80 3:203 
0.3616096773561359 1:16 2:55 3:240 
0.530821283985357 1:177 2:142 3:238 
0.5326215201881765 1:31 2:146 3:194 
0.5255741749662021 1:98 2:50 3:218 
0.4345536944088493 1:94 2:19 3:225 
0.5326258682513905 1:192 2:4 3:102 
0.5318999022255728 1:52 2:24 3:214 
0.5325571443265689 1:248 2:198 3:35 
0.5257110835586398 1:242 2:168 3:36 
0.5326197808975062 1:116 2:115 3:40 
0.3531490202156571 1:42 2:74 3:229 
0.5326235149116625 1:210 2:110 3:126 
0.4830424397332213 1:93 2:88 3:212 
0.5326061043799071 1:58 2:139 3:120 
0.532602554388627 1:75 2:40 3:86 
0.4251411093722507 1:25 2:29 3:253 
0.5325838475155378 1:160 2:59 3:189 
0.5232989695791981 1:42 2:41 3:244 
0.5327956889145924 1:121 2:94 3:246 
0.5206520221648869 1:1 2:97 3:250 
0.5326584947799461 1:161 2:2 3:112 
0.5326347254034369 1:175 2:79 3:219 
0.424301111595773 1:31 2:30 3:249 
0.5326193951582228 1:173 2:204 3:183 
0.5326526657603936 1:207 2:173 3:149 
0.5327286276691736 1:222 2:89 3:227 
0.3636735298317227 1:48 2:68 3:240 
0.532620499110168 1:104 2:88 3:9 
0.5326641414341882 1:142 2:32 3:8 
0.5135154854259312 1:89 2:55 3:215 
0.5326236391130184 1:51 2:201 3:83 
0.5022381719505427 1:55 2:40 3:228 
0.532588354906679 1:169 2:86 3:167 
0.532580391770179 1:218 2:134 3:162 
0.532278082827462 1:43 2:75 3:204 
0.4077479974822656 1:47 2:85 3:215 
0.4460720902164451 1:87 2:52 3:248 
0.5143599900350206 1:44 2:29 3:239 
0.3599344707913963 1:44 2:2 3:206 
0.532502209116451 1:85 2:59 3:254 
0.5326235910289132 1:219 2:54 3:129 
0.5325866957668088 1:252 2:122 3:150 
0.5073559987195218 1:30 2:3 3:235 
0.5325929686784585 1:218 2:0 3:137 
0.5251922243949765 1:93 2:14 3:216 
0.32342904783201 1:34 2:19 3:217 
0.5312768970078448 1:107 2:7 3:30 
0.5304626412511003 1:34 2:91 3:217 
0.5326312891491256 1:155 2:33 3:176 
0.5064745667439159 1:59 2:43 3:203 
0.5326242263798546 1:184 2:217 3:170 
0.5186877617689243 1:68 2:9 3:242 
0.5331383349463931 1:150 2:92 3:148 
0.5327837883135104 1:168 2:230 3:196 
0.4353921944403135 1:86 2:31 3:227 
0.532587428740059 1:230 2:234 3:45 
0.5325654713520172 1:49 2:15 3:241 
0.5309826596680645 1:39 2:41 3:205 
0.531294987042823 1:1 2:50 3:219 
0.5187231921600779 1:36 2:17 3:208 
0.5326349534638658 1:221 2:44 3:226 
0.5326239372395973 1:222 2:29 3:200 
0.5097578008694159 1:59 2:42 3:222 
0.5026760877395868 1:63 2:67 3:224 
0.5326001011044317 1:111 2:113 3:235 
0.5018524811639723 1:24 2:94 3:214 
0.5326158071642906 1:214 2:233 3:72 
0.4913720877676393 1:74 2:44 3:204 
0.5278223867898891 1:78 2:69 3:229 
0.5323750587597815 1:249 2:217 3:220 
0.5325692354596592 1:231 2:183 3:204 
0.3827514861558772 1:54 2:92 3:235 
0.5307500553864428 1:33 2:16 3:253 
0.5326079859765604 1:98 2:21 3:191 
0.53262216892018 1:33 2:50 3:111 
0.5325900017751507 1:138 2:90 3:47 
0.4423930929959434 1:37 2:43 3:249 
0.5326195925694639 1:198 2:127 3:117 
0.5325851571593451 1:98 2:58 3:170 
0.5325907905919164 1:30 2:29 3:206 
0.4481743996986042 1:85 2:52 3:249 
0.485461254072695 1:25 2:58 3:237 
0.5325894416048383 1:233 2:214 3:33 
0.5279938386947172 1:34 2:40 3:219 
0.5070359389001571 1:185 2:43 3:202 
0.5187388126755222 1:46 2:51 3:251 
0.5326094445589571 1:123 2:121 3:195 
0.5307470757704733 1:26 2:123 3:248 
0.5181511629978701 1:42 2:37 3:221 
0.5325836834454524 1:154 2:157 3:161 
0.5322503660154601 1:138 2:242 3:211 
0.5073535154062457 1:143 2:90 3:204 
0.3331770313173676 1:67 2:90 3:209 
0.5193973320817671 1:165 2:30 3:71 
0.5326288688161411 1:54 2:141 3:27 
0.2081564907520417 1:56 2:75 3:247 
0.5085651216362969 1:45 2:77 3:238 
0.5325967156898659 1:15 2:86 3:54 
0.5325889828360146 1:230 2:234 3:189 
0.5320773686696121 1:70 2:44 3:238 
0.4406032916491167 1:64 2:62 3:250 
0.5325878782529241 1:93 2:219 3:55 
0.3613551365508836 1:86 2:80 3:217 
0.5326171361990419 1:49 2:193 3:199 
0.532588907034963 1:55 2:216 3:184 
0.5325034908659297 1:22 2:7 3:154 
0.5326251358463427 1:40 2:205 3:126 
0.5324183442477799 1:163 2:112 3:50 
0.532588907818541 1:124 2:123 3:123 
0.4964571172351008 1:46 2:13 3:253 
0.5326250386322006 1:71 2:243 3:128 
0.5325895534427079 1:135 2:13 3:102 
0.5325427982921854 1:97 2:192 3:162 
0.5326594036725446 1:149 2:60 3:191 
0.5300655078676548 1:149 2:15 3:185 
0.5324545931914934 1:252 2:100 3:35 
0.5326189595734402 1:84 2:182 3:96 
0.4781620974789668 1:58 2:68 3:234 
0.5326248606486915 1:21 2:105 3:33 
0.5326120076501131 1:145 2:122 3:93 
0.5325867272080225 1:225 2:250 3:194 
0.5307547045871894 1:13 2:138 3:127 
0.5325857536404397 1:155 2:90 3:153 
0.532577156825458 1:136 2:5 3:25 
0.5307759655203084 1:86 2:1 3:228 
0.5325920775212063 1:160 2:96 3:216 
0.5071962136756704 1:91 2:68 3:206 
0.532632297509521 1:46 2:213 3:191 
0.519360554114294 1:83 2:237 3:92 
0.5276023343688536 1:3 2:9 3:208 
0.5330286342983792 1:38 2:67 3:202 
0.517973031154836 1:71 2:1 3:237 
0.5326259407698711 1:223 2:174 3:80 
0.4299825143380643 1:0 2:76 3:222 
0.5156223193254075 1:14 2:8 3:232 
0.5326240329112562 1:164 2:208 3:202 
0.5325793090639672 1:218 2:51 3:206 
0.53269076850245 1:235 2:11 3:192 
0.5325847379057169 1:37 2:70 3:119 
0.4182968647708915 1:88 2:67 3:239 
0.5326371995293837 1:223 2:161 3:161 
0.5325938462036393 1:152 2:130 3:169 
0.5326207529386495 1:51 2:12 3:74 
0.4687530271885142 1:40 2:108 3:161 
0.532508883071338 1:67 2:1 3:228 
0.4463853797659662 1:74 2:89 3:205 
0.532621192880115 1:12 2:194 3:136 
0.436829209323142 1:76 2:15 3:213 
0.466093417048597 1:90 2:45 3:242 
0.5325892074005483 1:3 2:59 3:161 
0.4979090737735377 1:161 2:242 3:195 
0.5294701966299289 1:75 2:89 3:209 
0.5325937961989808 1:173 2:225 3:239 
0.5325919455567212 1:31 2:36 3:178 
0.533147967838759 1:158 2:148 3:131 
0.5326278037782124 1:30 2:67 3:229 
0.5326238496727727 1:183 2:129 3:46 
0.3103859687607453 1:0 2:59 3:233 
0.3518806365764733 1:68 2:233 3:9 
0.5323125581938566 1:64 2:3 3:255 
0.5027046172080478 1:25 2:91 3:238 
0.5327263880567237 1:27 2:59 3:202 
0.5104918976230737 1:17 2:88 3:227 
0.5325844418832268 1:211 2:228 3:185 
0.509498450354271 1:60 2:51 3:220 
0.5325883377979035 1:98 2:158 3:22 
0.5326414741246173 1:37 2:84 3:185 
0.5321728857010632 1:13 2:182 3:119 
0.5326162602964 1:20 2:140 3:4 
0.5326150048453071 1:34 2:142 3:24 
0.532388849752637 1:33 2:91 3:225 
0.5326201434436236 1:207 2:97 3:93 
0.5325877064640747 1:32 2:204 3:163 
0.5193702554789401 1:153 2:28 3:189 
0.53262285442309 1:201 2:218 3:43 
0.5300923886217319 1:84 2:42 3:238 
0.5326641787870041 1:190 2:176 3:245 
0.5325746551145625 1:118 2:116 3:216 
0.5326897297948388 1:189 2:47 3:107 
0.5257673442145255 1:49 2:74 3:205 
0.4520455261779355 1:84 2:37 3:229 
0.5328490241576243 1:213 2:193 3:237 
0.5321784922084785 1:211 2:120 3:112 
0.5326378587564846 1:157 2:74 3:176 
0.5325253307743114 1:236 2:41 3:65 
0.4021200730905074 1:13 2:20 3:237 
0.5142950516768916 1:32 2:116 3:162 
0.5295520696495581 1:28 2:6 3:213 
0.5313241410792402 1:244 2:91 3:244 
0.5326270968021354 1:203 2:162 3:169 
0.5326206430290411 1:6 2:159 3:205 
0.5325754969696692 1:147 2:199 3:120 
0.5316467817899162 1:216 2:86 3:107 
0.532494949032629 1:18 2:41 3:177 
0.5327287254762756 1:228 2:57 3:232 
0.3093568844673747 1:74 2:24 3:60 
0.3501721133518065 1:12 2:91 3:233 
0.5018254982023221 1:86 2:6 3:242 
0.5323522922626853 1:25 2:97 3:225 
0.5307527146354312 1:176 2:180 3:129 
0.5265825349364028 1:86 2:96 3:253 
0.395525192871259 1:3 2:74 3:237 
0.532598026169386 1:43 2:164 3:64 
0.5325808593097585 1:98 2:166 3:194 
0.5328596967782628 1:227 2:198 3:235 
0.351221661306313 1:53 2:34 3:204 
0.5321098398754973 1:202 2:243 3:167 
0.5312398189533507 1:44 2:77 3:252 
0.5326309767209851 1:113 2:82 3:37 
0.5323948118982601 1:19 2:74 3:213 
0.5307520063863287 1:231 2:122 3:227 
0.5320417925966027 1:62 2:71 3:243 
0.5326257830612293 1:178 2:13 3:84 
0.5326224442985974 1:176 2:110 3:208 
0.5276298009500789 1:101 2:250 3:115 
0.5326450954594806 1:40 2:84 3:12 
0.5325946540678825 1:48 2:103 3:61 
0.5326077999053072 1:30 2:114 3:24 
0.4501181964694227 1:86 2:99 3:249 
0.4644535408527518 1:64 2:40 3:239 
0.5325992912958928 1:130 2:225 3:26 
0.4077560241880516 1:67 2:6 3:204 
0.5325232722362538 1:21 2:77 3:254 
0.5327222351770837 1:246 2:192 3:14 
0.5325131609037967 1:75 2:7 3:122 
0.5319030505945737 1:111 2:53 3:208 
0.5326647126955274 1:169 2:83 3:214 
0.5193916283463302 1:99 2:192 3:94 
0.4998367606143608 1:10 2:13 3:247 
0.532676466524189 1:165 2:100 3:25 
0.5316370150488398 1:168 2:150 3:250 
0.5325458788496755 1:188 2:71 3:156 
0.5325837184927762 1:107 2:163 3:160 
0.5326373183692221 1:239 2:34 3:94 
0.5326193036728655 1:67 2:116 3:244 
0.515822747829127 1:31 2:100 3:229 
0.5254501002955949 1:34 2:37 3:238 
0.4183578664046787 1:82 2:13 3:230 
0.4978808034911268 1:61 2:94 3:243 
0.5326260372590899 1:53 2:164 3:231 
0.5325936022298394 1:56 2:184 3:121 
0.5325782175105801 1:150 2:99 3:4 
0.5321442507538765 1:147 2:34 3:140 
0.2025877509268041 1:26 2:41 3:203 
0.5325980828557796 1:194 2:118 3:145 
0.5326170964676211 1:63 2:174 3:211 
0.4613064246014323 1:51 2:5 3:218 
0.5313184647685536 1:111 2:192 3:118 
0.5276452268941898 1:194 2:88 3:126 
0.5075330432335766 1:53 2:30 3:223 
0.4479414263866086 1:61 2:8 3:209 
0.3506159524821376 1:62 2:48 3:220 
0.5307891514518965 1:232 2:219 3:79 
0.5325775622736401 1:242 2:44 3:0 
0.4504276802579169 1:56 2:31 3:233 
0.5326171724197419 1:228 2:17 3:160 
0.5015353197122199 1:21 2:62 3:227 
0.5197118600405302 1:30 2:92 3:212 
0.5326237816490431 1:154 2:165 3:125 
0.493396677663639 1:2 2:78 3:221 
0.5326235976793638 1:57 2:17 3:32 
0.5325889121402562 1:113 2:221 3:240 
0.5326586499685526 1:243 2:229 3:111 
0.5048434898673155 1:78 2:63 3:235 
0.532590582612934 1:71 2:190 3:1 
0.5150655069607939 1:67 2:72 3:212 
0.5327159578755738 1:145 2:97 3:169 
0.5293227369325456 1:16 2:81 3:225 
0.5131192144498514 1:46 2:95 3:229 
0.4916316530231502 1:238 2:243 3:249 
0.4659090388392903 1:53 2:65 3:215 
0.5259883072524025 1:19 2:36 3:209 
0.5325552157172579 1:200 2:187 3:38 
0.5325919088879718 1:152 2:161 3:72 
0.3072700409509279 1:88 2:68 3:251 
0.5326238625273669 1:29 2:225 3:193 
0.4195437475856885 1:38 2:55 3:208 
0.52764823870657 1:53 2:91 3:189 
0.5194650751803477 1:55 2:2 3:255 
0.5295964834228406 1:180 2:103 3:148 
0.3691582200454428 1:33 2:30 3:246 
0.5324959069618865 1:91 2:120 3:194 
0.5326138302995294 1:13 2:244 3:95 
0.5330338652484297 1:30 2:68 3:78 
0.5325914827038132 1:56 2:62 3:174 
0.5324585535702874 1:247 2:99 3:160 
0.5325841578497844 1:212 2:23 3:33 
0.5325962233530841 1:42 2:126 3:247 
0.473070495893412 1:15 2:74 3:234 
0.5027784573521396 1:37 2:36 3:236 
0.3517711781032089 1:8 2:192 3:35 
0.5325579352871471 1:212 2:97 3:166 
0.5133243825866232 1:89 2:56 3:218 
0.5325878117699582 1:177 2:59 3:3 
0.5329691139172632 1:242 2:117 3:72 
0.5322066477422533 1:65 2:62 3:236 
0.5325900746988377 1:163 2:17 3:92 
0.5326136189279906 1:194 2:245 3:39 
0.5323754631479856 1:176 2:33 3:209 
0.5330195406282731 1:238 2:11 3:185 
0.5075963638126884 1:31 2:43 3:250 
0.1420619247066993 1:25 2:92 3:242 
0.5142599111541408 1:87 2:128 3:117 
0.5325979101871192 1:208 2:208 3:51 
0.5330998565411263 1:76 2:202 3:243 
0.5329643680047098 1:163 2:162 3:210 
0.53263736488556 1:222 2:186 3:210 
0.5325747723847621 1:27 2:0 3:200 
0.5146565274012966 1:97 2:17 3:209 
0.5175969472137358 1:74 2:2 3:209 
0.5224953039828837 1:59 2:35 3:250 
0.5141424477907761 1:77 2:70 3:239 
0.4480138281072819 1:27 2:86 3:201 
0.5276274035308149 1:113 2:146 3:218 
0.5182484106824903 1:99 2:18 3:242 
0.4695220531864459 1:58 2:28 3:224 
0.5325928374601353 1:65 2:1 3:250 
0.532651150569225 1:164 2:232 3:213 
0.5325814972656596 1:106 2:239 3:179 
0.5319251262890485 1:84 2:227 3:183 
0.532578580755243 1:105 2:96 3:83 
0.431065070734594 1:3 2:26 3:239 
0.5273758974640023 1:79 2:16 3:222 
0.5325777519645694 1:206 2:153 3:45 
0.4695888976468002 1:21 2:72 3:249 
0.4941698250226038 1:20 2:71 3:243 
0.5326302860420181 1:114 2:4 3:62 
0.5326334598393079 1:42 2:217 3:5 
0.5307319874954772 1:33 2:7 3:249 
0.5325785982884883 1:203 2:50 3:109 
0.5326102675795791 1:61 2:105 3:48 
0.4304650499147523 1:68 2:15 3:246 
0.5325843048216468 1:81 2:129 3:94 
0.5322370945185829 1:75 2:204 3:68 
0.4690809454757104 1:67 2:72 3:208 
0.4757819250365877 1:88 2:62 3:243 
0.5193705272838913 1:32 2:72 3:201 
0.5118035416091362 1:22 2:33 3:247 
0.3518864806650122 1:222 2:126 3:17 
0.5251759580680667 1:69 2:81 3:231 
0.5282183097519804 1:83 2:95 3:216 
0.5325831300267627 1:12 2:200 3:7 
0.469443458859473 1:30 2:96 3:217 
0.519793727480249 1:33 2:26 3:220 
0.5073541558472799 1:9 2:54 3:204 
0.4340727444403749 1:55 2:90 3:215 
0.5325775622838297 1:188 2:224 3:80 
0.5322657569954021 1:29 2:60 3:254 
0.4200602766741348 1:34 2:80 3:236 
0.5276298090265115 1:113 2:150 3:189 
0.5325113189894172 1:136 2:216 3:36 
0.5325854886615142 1:179 2:0 3:253 
0.5326247243063955 1:189 2:223 3:134 
0.5325855155017474 1:91 2:126 3:158 
0.472869133212637 1:80 2:78 3:220 
0.5328129443794278 1:115 2:248 3:156 
0.5325894614049309 1:184 2:169 3:59 
0.5326163024312367 1:172 2:43 3:55 
0.5325942994842381 1:236 2:1 3:108 
0.5142351800323788 1:181 2:177 3:49 
0.4479580748402948 1:25 2:86 3:200 
0.4474406528319499 1:27 2:54 3:200 
0.2935417660329629 1:22 2:38 3:243 
0.5325893285857117 1:7 2:90 3:192 
0.5331053474137326 1:58 2:112 3:127 
0.5326120308460796 1:49 2:188 3:30 
0.4553308194198901 1:72 2:97 3:243 
0.5326716708586399 1:58 2:62 3:128 
0.5130343660125751 1:27 2:80 3:239 
0.3825752789551239 1:18 2:75 3:226 
0.5016019121175012 1:58 2:63 3:250 
0.4482140366124522 1:88 2:20 3:254 
0.5305402415805685 1:237 2:34 3:84 
0.5073621410664613 1:1 2:95 3:78 
0.5325962925749572 1:255 2:24 3:68 
0.4212480892294003 1:95 2:66 3:236 
0.504105066111098 1:52 2:72 3:214 
0.2522951239184048 1:66 2:50 3:228 
0.4357537286316958 1:21 2:90 3:215 
0.5325892720407432 1:156 2:96 3:93 
0.5325903673605271 1:187 2:99 3:15 
0.5325904763651017 1:139 2:9 3:155 
0.5329775583723045 1:63 2:13 3:32 
0.5325891724749562 1:110 2:140 3:12 
0.530759114629231 1:84 2:56 3:243 
0.532589325354577 1:140 2:151 3:229 
0.4541095616190817 1:81 2:68 3:214 
0.5326261987375152 1:72 2:132 3:233 
0.5145869187533658 1:22 2:25 3:200 
0.5326097297573714 1:10 2:229 3:123 
0.5230765124675323 1:47 2:51 3:210 
0.3510970813303847 1:24 2:33 3:207 
0.3108408878499027 1:94 2:139 3:145 
0.389688690812313 1:98 2:80 3:255 
0.5013676350741056 1:82 2:65 3:227 
0.5316209736589399 1:119 2:81 3:92 
0.424326527367735 1:74 2:63 3:222 
0.5257343999715551 1:88 2:169 3:169 
0.445244452656143 1:19 2:81 3:215 
0.5331060839374372 1:239 2:94 3:92 
0.5326162300277277 1:232 2:75 3:172 
0.4476666934484119 1:7 2:30 3:215 
0.4480309880611374 1:7 2:84 3:239 
0.4977146073560599 1:14 2:30 3:234 
0.5325896800127661 1:178 2:7 3:152 
0.5326021758251451 1:49 2:81 3:137 
0.4159350183136177 1:46 2:88 3:202 
0.5326217749543875 1:61 2:63 3:25 
0.5320354877033695 1:18 2:63 3:250 
0.5326343534603453 1:242 2:143 3:254 
0.5326713654991105 1:164 2:12 3:22 
0.5326246838466402 1:119 2:13 3:160 
0.5084756377657159 1:84 2:7 3:208 
0.5276314461454591 1:209 2:176 3:215 
0.4695864326410944 1:57 2:22 3:248 
0.5326376025113628 1:174 2:27 3:102 
0.5326243228974036 1:201 2:25 3:101 
0.3771194815988406 1:94 2:88 3:252 
0.514157483253337 1:2 2:94 3:223 
0.5047128777027192 1:80 2:91 3:234 
0.5326013527293438 1:62 2:234 3:236 
0.5325572740503575 1:238 2:79 3:168 
0.5326384112677136 1:166 2:230 3:129 
0.5322794509129508 1:129 2:183 3:56 
0.5042971841692996 1:15 2:45 3:227 
0.5309179837936361 1:68 2:25 3:247 
0.5162881329026792 1:77 2:64 3:242 
0.532624840630374 1:178 2:84 3:208 
0.5023053149004011 1:33 2:62 3:207 
0.5326376161669015 1:127 2:171 3:63 
0.5326418376621862 1:60 2:24 3:87 
0.5326260095885027 1:12 2:1 3:165 
0.4881396921756954 1:19 2:66 3:215 
0.5326377576284047 1:105 2:110 3:1 
0.5325192531788288 1:60 2:212 3:126 
0.5298577750729601 1:56 2:37 3:205 
0.0964517166142795 1:100 2:53 3:244 
0.5060362795237379 1:34 2:41 3:208 
0.5325884130128513 1:165 2:166 3:118 
0.4689806553361829 1:23 2:98 3:206 
0.5325878407894324 1:147 2:86 3:117 
0.5329323065748216 1:46 2:91 3:86 
0.5285214046870977 1:6 2:82 3:220 
0.4448978834433174 1:17 2:2 3:235 
0.5325666116130474 1:230 2:36 3:78 
0.5325874574958542 1:206 2:223 3:111 
0.4379005003322318 1:7 2:81 3:241 
0.532596056906953 1:24 2:242 3:207 
0.5326219480146439 1:144 2:16 3:1 
0.5326209275222391 1:110 2:244 3:116 
0.5322938337347348 1:20 2:67 3:232 
0.5326368457391362 1:248 2:251 3:210 
0.5325808133436241 1:247 2:21 3:63 
0.4737080459615732 1:70 2:82 3:219 
0.5327478728226014 1:254 2:243 3:200 
0.5304371748335033 1:90 2:9 3:203 
0.5326213828466775 1:74 2:83 3:174 
0.5165353549612028 1:99 2:64 3:222 
0.5325337540621278 1:37 2:251 3:254 
0.5326385258788109 1:115 2:218 3:174 
0.4428844816248989 1:96 2:22 3:240 
0.5326168153725851 1:71 2:219 3:247 
0.4162792895306374 1:5 2:10 3:236 
0.5327667243138262 1:55 2:87 3:21 
0.5321473193584563 1:108 2:235 3:195 
0.5326274937195894 1:87 2:41 3:186 
0.5331326333014941 1:243 2:202 3:140 
0.5326124620852289 1:146 2:223 3:148 
0.4591440375675159 1:60 2:8 3:237 
0.5326373473099906 1:199 2:198 3:130 
0.5325813815432204 1:8 2:186 3:104 
0.5088757532946029 1:79 2:75 3:234 
0.5193594930061306 1:229 2:146 3:199 
0.5325345755811106 1:79 2:99 3:73 
0.531033049908927 1:13 2:9 3:238 
0.5312660632637991 1:34 2:47 3:207 
0.532605829196782 1:111 2:220 3:202 
0.5325918884982805 1:246 2:113 3:148 
0.5325941957952709 1:7 2:16 3:111 
0.5326207782375988 1:170 2:74 3:86 
0.4947648882469984 1:55 2:89 3:232 
0.5325808812008759 1:151 2:157 3:47 
0.5326226245482761 1:206 2:209 3:176 
0.4320727031842342 1:54 2:19 3:244 
0.5327207922587986 1:199 2:152 3:178 
0.4171201256533276 1:90 2:5 3:239 
0.5319244276365631 1:111 2:168 3:84 
0.5325861575443152 1:134 2:69 3:33 
0.518639675626107 1:63 2:77 3:244 
0.5326393084556482 1:44 2:33 3:123 
0.5210628586837156 1:48 2:52 3:218 
0.5325985715953094 1:40 2:120 3:106 
0.2124051897663373 1:40 2:39 3:229 
0.5326157172870318 1:157 2:135 3:38 
0.5242089654415449 1:19 2:63 3:230 
0.5175516899286532 1:90 2:55 3:228 
0.5325874750255669 1:44 2:133 3:255 
0.5325913412365489 1:166 2:131 3:115 
0.5325911784329007 1:255 2:113 3:32 
0.4153719456933462 1:54 2:20 3:241 
0.5325942308986826 1:137 2:210 3:35 
0.5325797430792747 1:132 2:161 3:61 
0.5289628233128527 1:99 2:79 3:200 
0.5118016992713939 1:68 2:1 3:234 
0.5326065829541369 1:37 2:243 3:133 
0.5326031368704875 1:240 2:180 3:107 
0.5233041096517461 1:56 2:83 3:225 
0.4478966129918898 1:45 2:9 3:208 
0.5325785321454075 1:145 2:22 3:145 
0.4617247689129607 1:39 2:36 3:212 
0.5325458615581371 1:188 2:90 3:45 
0.5326135037419732 1:204 2:235 3:242 
0.5326582759544556 1:139 2:113 3:79 
0.5326226426375376 1:154 2:166 3:44 
0.5326171916705564 1:57 2:249 3:187 
0.5325875529909923 1:224 2:25 3:13 
0.5207285741304424 1:75 2:87 3:237 
0.533033686996095 1:195 2:166 3:160 
0.5327031774932849 1:0 2:46 3:255 
0.5328829906556716 1:27 2:213 3:179 
0.4677675285118238 1:17 2:50 3:210 
0.4694897709464798 1:40 2:9 3:241 
0.533173757606331 1:61 2:197 3:65 
0.4975109654895866 1:19 2:72 3:227 
0.4870298332424419 1:21 2:19 3:250 
0.5323640291932699 1:80 2:198 3:173 
0.5296761254361108 1:36 2:5 3:224 
0.5024399826185562 1:27 2:89 3:239 
0.3615723250973312 1:79 2:88 3:229 
0.5293229138213635 1:50 2:82 3:220 
0.5326062001878281 1:254 2:14 3:110 
0.5326010689983989 1:250 2:99 3:100 
0.533062450588985 1:92 2:170 3:49 
0.5276509107712428 1:176 2:200 3:194 
0.5329569214237606 1:144 2:245 3:21 
0.5326517645443507 1:26 2:152 3:173 
0.3109212955712749 1:2 2:26 3:217 
0.4602583297299436 1:69 2:42 3:252 
0.4285388228883273 1:36 2:89 3:255 
0.5309258416110408 1:15 2:109 3:32 
0.4860645883557749 1:16 2:72 3:236 
0.5326239992774329 1:48 2:52 3:163 
0.4101243997673949 1:66 2:83 3:214 
0.5326230535765419 1:48 2:100 3:210 
0.5331383453825986 1:159 2:3 3:47 
0.5329222914188394 1:246 2:28 3:100 
0.4485435372280008 1:14 2:11 3:231 
0.5326069612271489 1:15 2:191 3:255 
0.5313132710391855 1:20 2:220 3:0 
0.5330671266956264 1:225 2:196 3:15 
0.4693087017145841 1:100 2:51 3:212 
0.4580520196285236 1:85 2:82 3:253 
0.5044896383429829 1:5 2:35 3:199 
0.5325915320894132 1:255 2:119 3:164 
0.5326126176246438 1:44 2:182 3:236 
0.5325837152045954 1:100 2:93 3:209 
0.5326101951858024 1:147 2:254 3:234 
0.5325888758871236 1:143 2:178 3:91 
0.2383818426284788 1:2 2:42 3:200 
0.5313087861464666 1:77 2:250 3:163 
0.5308180913114232 1:3 2:85 3:248 
0.5060379912722586 1:85 2:74 3:218 
0.5099194568250289 1:56 2:1 3:252 
0.5326133026889324 1:240 2:172 3:78 
0.5326029915108541 1:191 2:246 3:181 
0.4986684103036446 1:19 2:96 3:254 
0.5326209080882427 1:16 2:152 3:73 
0.5326366636366839 1:236 2:183 3:163 
0.5326032394809306 1:244 2:129 3:18 
0.4936085822158537 1:60 2:31 3:235 
0.4468939722955451 1:51 2:97 3:233 
0.5105359948877453 1:41 2:97 3:247 
0.532632773881867 1:148 2:133 3:189 
0.5312567501655546 1:88 2:215 3:89 
0.5330174763224325 1:137 2:191 3:158 
0.5325548124160266 1:104 2:113 3:159 
0.5325916920106325 1:72 2:73 3:143 
0.3470694737801679 1:48 2:82 3:206 
0.5326155194374886 1:6 2:199 3:208 
0.5325893279173146 1:246 2:209 3:221 
0.3407785647324063 1:13 2:14 3:233 
0.4708714745994712 1:8 2:49 3:225 
0.5182704588737774 1:55 2:53 3:207 
0.5325428030577948 1:201 2:149 3:186 
0.5021057913845942 1:73 2:91 3:234 
0.5324118299659268 1:26 2:86 3:212 
0.4622396810209846 1:82 2:82 3:205 
0.5324963340385909 1:7 2:21 3:68 
0.4529620474094118 1:56 2:65 3:247 
0.5073613097756409 1:26 2:86 3:95 
0.5331655494749777 1:133 2:76 3:38 
0.510072189480107 1:15 2:84 3:207 
0.5325590261450142 1:101 2:150 3:114 
0.5326238482419802 1:239 2:101 3:61 
0.3107598594682414 1:17 2:14 3:211 
0.5325854885611566 1:50 2:224 3:160 
0.5326239372395476 1:9 2:192 3:70 
0.3916256965579231 1:39 2:41 3:215 
0.5321044684737071 1:232 2:119 3:134 
0.5038057800466651 1:17 2:16 3:244 
0.5325174826497792 1:24 2:70 3:139 
0.3786019725360244 1:3 2:61 3:252 
0.5326085651282819 1:10 2:197 3:45 
0.5073400379161572 1:84 2:4 3:207 
0.5326224168395703 1:2 2:155 3:87 
0.4615029037512585 1:29 2:71 3:236 
0.5325890154966588 1:179 2:18 3:179 
0.3274353767771204 1:83 2:76 3:233 
0.5325951424806514 1:253 2:74 3:171 
0.4646394408342302 1:33 2:72 3:234 
0.5327609682932661 1:89 2:68 3:109 
0.5311207656763295 1:93 2:82 3:227 
0.5326245725487611 1:211 2:139 3:182 
0.5327343848244296 1:152 2:220 3:37 
0.5321463640190066 1:69 2:126 3:106 
0.5031434498952208 1:32 2:40 3:206 
0.5010531853495435 1:60 2:75 3:220 
0.309266738258641 1:58 2:1 3:202 
0.4533044880554129 1:44 2:1 3:245 
0.4626478326572644 1:51 2:27 3:200 
0.5327124252676307 1:248 2:234 3:49 
0.5324520704720535 1:90 2:124 3:55 
0.5326203503663217 1:167 2:56 3:201 
0.5325746085664675 1:185 2:212 3:69 
0.5326057707598877 1:80 2:15 3:136 
0.532567219567087 1:201 2:85 3:174 
0.532818971143101 1:88 2:76 3:25 
0.5325331107997845 1:86 2:224 3:19 
0.5318026988496668 1:154 2:76 3:123 
0.5303053306363537 1:11 2:25 3:214 
0.5331373335570817 1:217 2:154 3:143 
0.5303087323058923 1:92 2:97 3:225 
0.531124016189458 1:94 2:78 3:242 
0.3252855211606688 1:4 2:19 3:223 
0.5325904402549633 1:93 2:7 3:191 
0.5306699993795152 1:138 2:162 3:226 
0.5325954235218779 1:96 2:141 3:169 
0.5326877022931061 1:236 2:91 3:41 
0.5325874315214698 1:51 2:23 3:28 
0.5245695592948895 1:100 2:5 3:249 
0.5326220993397349 1:20 2:237 3:30 
0.3080641063300616 1:5 2:47 3:204 
0.5325899935505767 1:94 2:231 3:98 
0.5325373246340508 1:104 2:83 3:147 
0.507397567964653 1:55 2:178 3:8 
0.1269195756395064 1:33 2:78 3:237 
0.4893298271850758 1:67 2:46 3:242 
0.5309012898921862 1:252 2:10 3:131 
0.4384461247407338 1:16 2:64 3:235 
0.3866300417951246 1:56 2:45 3:248 
0.5322686623675266 1:86 2:47 3:145 
0.5325849745396761 1:80 2:141 3:81 
0.4475510169021212 1:184 2:111 3:8 
0.5330307428304448 1:67 2:176 3:59 
0.4687568707392645 1:37 2:27 3:240 
0.3337395103080797 1:64 2:87 3:252 
0.5325964442702786 1:194 2:56 3:165 
0.3279402404535801 1:41 2:33 3:215 
0.5003772157081579 1:54 2:48 3:225 
0.09360274840316588 1:73 2:69 3:210 
0.4561635074731219 1:42 2:12 3:237 
0.5326047957971408 1:107 2:129 3:224 
0.5326251201450656 1:90 2:118 3:39 
0.5326252548237894 1:192 2:191 3:241 
0.532742673124758 1:39 2:89 3:88 
0.5076048988566799 1:25 2:83 3:206 
0.5326702094649833 1:189 2:68 3:210 
0.5325861829591736 1:109 2:159 3:11 
0.3421506671455731 1:61 2:89 3:242 
0.5325887295182521 1:157 2:211 3:181 
0.5326171090353294 1:31 2:94 3:128 
0.5315056999460251 1:25 2:70 3:243 
0.3198530474492405 1:92 2:56 3:245 
0.5325866517178064 1:211 2:61 3:161 
0.5325889407898622 1:109 2:145 3:150 
0.5256957596520793 1:240 2:168 3:33 
0.5299217884631584 1:22 2:80 3:235 
0.5325601402647618 1:66 2:22 3:39 
0.4929727351428902 1:45 2:73 3:236 
0.4866651428237588 1:21 2:64 3:242 
0.532608358940984 1:42 2:114 3:80 
0.4784747155925494 1:4 2:80 3:242 
0.44730932997084 1:69 2:60 3:210 
0.4171833021847265 1:79 2:14 3:239 
0.5325907517313855 1:22 2:85 3:158 
0.5325961792778658 1:57 2:111 3:38 
0.5256151050717754 1:89 2:94 3:226 
0.5326315318608388 1:36 2:36 3:112 
0.4101369777659766 1:0 2:75 3:220 
0.5282165588456633 1:56 2:2 3:222 
0.5211749619054101 1:14 2:71 3:252 
0.5266342731475513 1:15 2:36 3:252 
0.5229341324804191 1:35 2:65 3:206 
0.5325855519507395 1:160 2:229 3:122 
0.4645028380286828 1:48 2:47 3:252 
0.5325982232092199 1:50 2:158 3:145 
0.5325345941186425 1:137 2:80 3:141 
0.5079250879067658 1:41 2:3 3:224 
0.3864986710332106 1:12 2:55 3:236 
0.5319463420565682 1:128 2:73 3:154 
0.4761985843660401 1:76 2:54 3:220 
0.5325546167575058 1:200 2:24 3:67 
0.4452014454608517 1:77 2:23 3:241 
0.5325799648339293 1:183 2:115 3:16 
0.5325864124124329 1:73 2:29 3:134 
0.5104590151383266 1:72 2:35 3:228 
0.5325802206296295 1:237 2:203 3:124 
0.4691890998482499 1:50 2:128 3:13 
0.5326707173398866 1:35 2:218 3:54 
0.5326257418430844 1:174 2:206 3:107 
0.5326011127243511 1:178 2:203 3:67 
0.5314953455726574 1:87 2:13 3:225 
0.5276297750156864 1:140 2:212 3:251 
0.5326260095901485 1:243 2:11 3:150 
0.3921052731174651 1:0 2:68 3:244 
0.5325786784065045 1:149 2:18 3:54 
0.5257026838888679 1:106 2:13 3:120 
0.5305603538162904 1:47 2:66 3:233 
0.5326325855975302 1:79 2:213 3:218 
0.527631499977033 1:162 2:239 3:180 
0.5306607763047506 1:8 2:22 3:227 
0.5324727149869359 1:179 2:132 3:100 
0.5053531154552705 1:89 2:41 3:225 
0.5326353626326261 1:66 2:141 3:60 
0.5319026083826863 1:128 2:23 3:81 
0.5326258684180082 1:55 2:19 3:121 
0.5257362093011146 1:135 2:142 3:227 
0.4982398688773773 1:52 2:9 3:224 
0.5326660984219413 1:108 2:30 3:7 
0.5325775476204363 1:194 2:137 3:37 
0.5326236233767618 1:19 2:109 3:41 
0.5319199896173632 1:14 2:7 3:211 
0.5326165889425069 1:223 2:242 3:231 
0.5326171856186528 1:85 2:240 3:207 
0.5326156312205585 1:249 2:0 3:42 
0.5324577878021679 1:53 2:1 3:202 
0.5326267621647349 1:129 2:86 3:227 
0.5326189671522347 1:234 2:151 3:93 
0.5129771219448502 1:32 2:35 3:242 
0.5326265658366356 1:64 2:246 3:39 
0.5308977694615871 1:98 2:37 3:228 
0.5325861159530834 1:171 2:176 3:51 
0.5220237206960683 1:17 2:42 3:251 
0.3437429339518098 1:94 2:39 3:213 
0.5326055696131913 1:43 2:189 3:217 
0.5325722523324142 1:73 2:123 3:191 
0.4964024869409298 1:31 2:49 3:238 
0.5325974657163608 1:215 2:91 3:175 
0.4411066618870443 1:68 2:51 3:228 
0.517679435703818 1:22 2:86 3:204 
0.5116932332407793 1:60 2:26 3:254 
0.5306161384339985 1:82 2:73 3:201 
0.5325921473009305 1:154 2:48 3:91 
0.5327064841894777 1:119 2:222 3:187 
0.5325875057346752 1:164 2:134 3:246 
0.5325902054695978 1:36 2:117 3:240 
0.5127555003344306 1:49 2:41 3:239 
0.4287688087736357 1:5 2:28 3:232 
0.4456377477989597 1:55 2:53 3:226 
0.5326358739119886 1:43 2:252 3:35 
0.5184192018953007 1:88 2:38 3:235 
0.5325901560396197 1:122 2:248 3:185 
0.5325805997696027 1:80 2:135 3:157 
0.3427071674270992 1:38 2:91 3:227 
0.5326144822035135 1:222 2:60 3:143 
0.5325919823844041 1:138 2:125 3:179 
0.5326231729789028 1:199 2:115 3:0 
0.2855026360170835 1:23 2:30 3:230 
0.5326396660865138 1:234 2:233 3:200 
0.5325815734166108 1:78 2:246 3:153 
0.415244976082969 1:34 2:32 3:246 
0.5276131053149771 1:225 2:44 3:87 
0.5066585919314539 1:37 2:94 3:209 
0.456282180557035 1:98 2:3 3:236 
0.4966454051576339 1:65 2:32 3:233 
0.354370027746536 1:42 2:52 3:223 
0.4673756292395 1:100 2:85 3:226 
0.526257793950359 1:19 2:14 3:218 
0.4432289461933751 1:84 2:21 3:221 
0.5329314709362635 1:102 2:54 3:197 
0.5326226836791434 1:78 2:66 3:46 
0.237424811818237 1:210 2:94 3:131 
0.532592679936831 1:253 2:13 3:80 
0.5325885549456233 1:160 2:192 3:104 
0.5148477591970735 1:94 2:30 3:234 
0.3798395890408958 1:58 2:11 3:252 
0.480514307101565 1:38 2:89 3:211 
0.5325953247455882 1:22 2:232 3:101 
0.5328732429551795 1:147 2:8 3:149 
0.5325889152152834 1:41 2:251 3:239 
0.5326306721100267 1:109 2:187 3:29 
0.5326330033208696 1:113 2:52 3:221 
0.5326227730182987 1:188 2:237 3:207 
0.5276624252539643 1:160 2:21 3:218 
0.5325870819167179 1:84 2:107 3:168 
0.5325240196377853 1:189 2:84 3:236 
0.5325823316998136 1:203 2:28 3:134 
0.3781857369877397 1:54 2:87 3:226 
0.4201925728259565 1:85 2:73 3:204 
0.5307800858845877 1:85 2:30 3:251 
0.4317073558559324 1:19 2:18 3:217 
0.4751047777033848 1:17 2:98 3:250 
0.5326082342236323 1:19 2:215 3:160 
0.4796511622376171 1:16 2:50 3:217 
0.4472417485863899 1:85 2:74 3:232 
0.5255869536192341 1:75 2:79 3:209 
0.3969420594271015 1:76 2:11 3:207 
0.3134868711455811 1:96 2:31 3:248 
0.3952393178053605 1:85 2:77 3:214 
0.5072772067216798 1:68 2:49 3:209 
0.4455707217799683 1:29 2:89 3:254 
0.532604405629425 1:234 2:189 3:174 
0.3521550484440952 1:30 2:22 3:201 
0.5326114571916019 1:164 2:168 3:5 
0.5072871252337712 1:29 2:27 3:200 
0.5322831283320444 1:223 2:172 3:180 
0.5324969512985178 1:243 2:88 3:68 
0.5327720966920435 1:98 2:217 3:20 
0.5312571468044063 1:102 2:240 3:85 
0.4477047299962101 1:99 2:98 3:169 
0.5313588811224055 1:27 2:40 3:239 
0.5326180802767269 1:122 2:107 3:227 
0.263946463841404 1:90 2:51 3:241 
0.5320650748343413 1:92 2:160 3:221 
0.5325912290745902 1:218 2:243 3:255 
0.5326032884672101 1:80 2:209 3:87 
0.4655197617106712 1:18 2:8 3:253 
0.5324273476353767 1:158 2:228 3:199 
0.5244416261935854 1:63 2:80 3:227 
0.532625539768558 1:195 2:234 3:214 
0.476247043397441 1:69 2:8 3:233 
0.4980870469906546 1:20 2:46 3:253 
0.5325954238535175 1:56 2:140 3:137 
0.5325945836652957 1:29 2:106 3:18 
0.5022239083244342 1:80 2:56 3:202 
0.5325722995586699 1:76 2:50 3:15 
0.46912980219896 1:105 2:126 3:77 
0.5325835956369674 1:82 2:90 3:95 
0.5326262171770251 1:233 2:177 3:204 
0.5233097922497756 1:61 2:34 3:220 
0.5325894348263738 1:51 2:126 3:75 
0.4479758661274642 1:94 2:32 3:6 
0.434020056277739 1:37 2:27 3:200 
0.4619451534256403 1:2 2:2 3:254 
0.5325965777207322 1:62 2:237 3:150 
0.5325978038588013 1:69 2:237 3:213 
0.5323384064495581 1:18 2:93 3:205 
0.5311085736239189 1:90 2:69 3:234 
0.4083601608680081 1:3 2:75 3:235 
0.5062503724373029 1:64 2:44 3:230 
0.5325553817357462 1:24 2:74 3:177 
0.4403633039341893 1:16 2:28 3:207 
0.5133567519493978 1:76 2:43 3:241 
0.532593151096045 1:18 2:102 3:171 
0.4560225277363677 1:94 2:70 3:231 
0.3313509392297164 1:14 2:94 3:215 
0.5326090038455109 1:3 2:166 3:143 
0.3514661677945192 1:57 2:91 3:228 
0.5326294942943546 1:2 2:247 3:90 
0.5307795505758779 1:12 2:7 3:223 
0.5325937457105153 1:151 2:197 3:98 
0.3872521804329562 1:85 2:47 3:254 
0.4952374034999312 1:55 2:5 3:230 
0.5325956357950243 1:212 2:52 3:24 
0.2751478165996014 1:76 2:89 3:232 
0.4060121054408531 1:10 2:30 3:253 
0.46418557342978 1:42 2:1 3:215 
0.5256956023174076 1:134 2:208 3:185 
0.3081930443460648 1:18 2:14 3:211 
0.5326002044649287 1:69 2:162 3:139 
0.5326162035947629 1:197 2:202 3:168 
0.4999161852619393 1:217 2:28 3:76 
0.4177155226526905 1:7 2:97 3:210 
0.3995163220266275 1:100 2:27 3:229 
0.5331539855255876 1:129 2:199 3:173 
0.3798162933494291 1:42 2:79 3:216 
0.4744087170432038 1:2 2:14 3:230 
0.1104109656623721 1:96 2:38 3:213 
0.5326261468170481 1:204 2:157 3:106 
0.5326144688572768 1:122 2:55 3:11 
0.5015423412170166 1:71 2:95 3:214 
0.4944264040086292 1:73 2:62 3:211 
0.5328122301677694 1:39 2:221 3:167 
0.532616184484241 1:68 2:98 3:134 
0.5326242267762327 1:119 2:120 3:107 
0.1105203414434629 1:50 2:89 3:232 
0.4980899613186601 1:114 2:249 3:220 
0.3785711581430802 1:13 2:80 3:210 
0.5326160973935709 1:188 2:9 3:250 
0.5328172466409 1:126 2:127 3:17 
0.5050099839728126 1:38 2:32 3:212 
0.5315414475368987 1:38 2:44 3:226 
0.5326043201681218 1:150 2:220 3:79 
0.5319818835311003 1:49 2:64 3:212 
0.3491354188749384 1:28 2:38 3:216 
0.5326150369410374 1:243 2:88 3:139 
0.4429202861258969 1:43 2:40 3:234 
0.5294111584789705 1:7 2:86 3:219 
0.5325485639224125 1:219 2:125 3:239 
0.5325932937089167 1:206 2:195 3:140 
0.53211497747908 1:206 2:242 3:165 
0.4606941399330413 1:19 2:66 3:221 
0.5325903958383901 1:128 2:229 3:151 
0.4398838185721142 1:60 2:76 3:238 
0.2840330906060908 1:91 2:86 3:204 
0.5324795860440158 1:209 2:25 3:6 
0.4466850188585568 1:23 2:98 3:236 
0.5326273794282316 1:229 2:22 3:20 
0.5326094909692466 1:167 2:67 3:58 
0.5326215914123564 1:76 2:15 3:187 
0.5325790215037494 1:82 2:143 3:6 
0.5237974480114745 1:65 2:5 3:224 
0.5326190090712982 1:0 2:208 3:168 
0.5189311833310757 1:50 2:40 3:226 
0.5325788130918077 1:95 2:251 3:105 
0.5166320316476127 1:74 2:63 3:236 
0.5193171849156959 1:150 2:27 3:188 
0.4290413287718332 1:40 2:55 3:209 
0.5326608342002723 1:227 2:56 3:124 
0.532644333664402 1:237 2:26 3:131 
0.5325898357029386 1:178 2:148 3:242 
0.5327281092605407 1:124 2:123 3:42 
0.5327044415749218 1:187 2:69 3:72 
0.5325788903069637 1:53 2:231 3:191 
0.5326063959145091 1:36 2:253 3:25 
0.3095086515623867 1:96 2:15 3:250 
0.3523300194146361 1:12 2:90 3:215 
0.4560910455302457 1:4 2:24 3:240 
0.5323873680929383 1:20 2:7 3:228 
0.5325884928622893 1:215 2:17 3:78 
0.5325914344776064 1:55 2:236 3:93 
0.5326198210678306 1:161 2:249 3:229 
0.4660620660138852 1:55 2:20 3:254 
0.5325817643190345 1:17 2:29 3:39 
0.5256615547380989 1:61 2:80 3:206 
0.5325761708373112 1:47 2:84 3:198 
0.5180782310923912 1:10 2:93 3:202 
0.5050920471253512 1:80 2:10 3:230 
0.5325889876266553 1:196 2:216 3:64 
0.4121449148873598 1:52 2:19 3:243 
0.532597794591865 1:62 2:61 3:186 
0.4478342227667607 1:36 2:53 3:213 
0.532598381966058 1:238 2:184 3:5 
0.4409178959409603 1:44 2:64 3:249 
0.5330102021833054 1:232 2:77 3:218 
0.5324515034731379 1:107 2:59 3:107 
0.5257774954725201 1:1 2:7 3:238 
0.5328184826762192 1:123 2:57 3:144 
0.5326234376362131 1:160 2:17 3:224 
0.5326087246674067 1:1 2:204 3:136 
0.5322501516531513 1:188 2:125 3:28 
0.5321090481798427 1:247 2:149 3:45 
0.3886304496433479 1:5 2:47 3:241 
0.3874955572347941 1:47 2:41 3:223 
0.4358889995376297 1:64 2:26 3:252 
0.532569251189043 1:87 2:171 3:68 
0.5312876192840902 1:232 2:31 3:79 
0.5257348026394155 1:166 2:60 3:212 
0.498747159703594 1:33 2:93 3:211 
0.4239959565234862 1:86 2:41 3:227 
0.5325891240511029 1:198 2:191 3:56 
0.4745874182592796 1:63 2:93 3:227 
0.5325807153926829 1:13 2:121 3:132 
0.5326257375498723 1:136 2:148 3:196 
0.5326331779864216 1:163 2:195 3:83 
0.5326242009994087 1:36 2:148 3:68 
0.5324784185635542 1:104 2:60 3:154 
0.5138508200337619 1:79 2:45 3:231 
0.5326329297459058 1:207 2:167 3:198 
0.5326237848177322 1:192 2:130 3:47 
0.5312002833812233 1:54 2:98 3:222 
0.5129964737087084 1:3 2:22 3:249 
0.5325934075681815 1:1 2:48 3:73 
0.5326082342234539 1:141 2:39 3:1 
0.5253630559034448 1:63 2:22 3:224 
0.5325949726218338 1:125 2:144 3:231 
0.3450258687243249 1:9 2:60 3:218 
0.5325923071351021 1:12 2:65 3:45 
0.5326221274554588 1:228 2:206 3:95 
0.5325904380699541 1:229 2:146 3:32 
0.4318257498627111 1:25 2:91 3:243 
0.5325868106861845 1:251 2:66 3:162 
0.5325326580619886 1:40 2:55 3:232 
0.4883005041213301 1:20 2:27 3:210 
0.5325980682456184 1:153 2:0 3:111 
0.5252835708855113 1:24 2:45 3:231 
0.5326337178547116 1:101 2:52 3:192 
0.5326338940426829 1:77 2:107 3:65 
0.5326568026735369 1:207 2:48 3:104 
0.5325893577716456 1:81 2:67 3:101 
0.5330630560039837 1:131 2:234 3:94 
0.5324629097248124 1:175 2:120 3:188 
0.4863677008285461 1:14 2:51 3:219 
0.5316167889698138 1:64 2:67 3:205 
0.5325866320026849 1:113 2:244 3:89 
0.5325927023709898 1:105 2:10 3:100 
0.532596292367973 1:193 2:11 3:212 
0.4811423489006478 1:13 2:88 3:255 
0.5325854440288635 1:21 2:202 3:33 
0.3498019420986554 1:43 2:90 3:225 
0.5055743487019786 1:16 2:74 3:190 
0.5325820901598695 1:188 2:199 3:176 
0.5324724172857884 1:131 2:248 3:215 
0.5325837772569761 1:43 2:76 3:189 
0.5326205393457264 1:138 2:185 3:253 
0.5143151073702492 1:5 2:221 3:12 
0.5326304495501201 1:26 2:138 3:3 
0.5325798655791087 1:215 2:166 3:224 
0.5276487694333571 1:222 2:161 3:86 
0.4078114016133614 1:14 2:54 3:214 
0.532580297172961 1:2 2:135 3:244 
0.5329616477173409 1:118 2:3 3:163 
0.5324114820089709 1:223 2:4 3:68 
0.4449489242230985 1:27 2:56 3:236 
0.5325038280593004 1:68 2:81 3:255 
0.5325859069301977 1:142 2:122 3:145 
0.5326172814045069 1:182 2:147 3:233 
0.5325930472763354 1:225 2:181 3:222 
0.5143165442871525 1:202 2:227 3:193 
0.5326078692383771 1:6 2:6 3:0 
0.5325931722723367 1:125 2:129 3:46 
0.5326623440821119 1:218 2:47 3:142 
0.5324987059616294 1:163 2:139 3:95 
0.5313207545047059 1:185 2:63 3:178 
0.496909493261129 1:86 2:99 3:228 
0.5322700896300347 1:153 2:88 3:30 
0.5326205276824478 1:133 2:48 3:128 
0.3800586660329267 1:30 2:52 3:226 
0.5322942295542614 1:112 2:174 3:31 
0.5326205477062136 1:233 2:39 3:179 
0.5326090495459621 1:108 2:237 3:113 
0.5326343212926397 1:195 2:30 3:209 
0.5144818511234486 1:89 2:11 3:250 
0.5324819191708359 1:25 2:191 3:210 
0.5005910878977141 1:92 2:88 3:249 
0.5316678710838281 1:100 2:27 3:236 
0.532621719383102 1:168 2:85 3:70 
0.5179962732344858 1:16 2:81 3:230 
0.5325896076117527 1:228 2:219 3:96 
0.5203349973792974 1:17 2:56 3:244 
0.532578922882796 1:243 2:71 3:171 
0.474276977777021 1:42 2:53 3:220 
0.5325412760173454 1:241 2:40 3:64 
0.5044965992669214 1:17 2:52 3:215 
0.5325988243381861 1:196 2:62 3:125 
0.2460859661905509 1:78 2:28 3:240 
0.5325786161194505 1:108 2:255 3:241 
0.5325981634728901 1:64 2:125 3:250 
0.5328371782666776 1:90 2:140 3:24 
0.5325983088596609 1:119 2:249 3:120 
0.5326205319137023 1:40 2:162 3:209 
0.5124799857108939 1:78 2:1 3:254 
0.5140397668701944 1:56 2:41 3:223 
0.5325879068538514 1:85 2:18 3:126 
0.4188472946208655 1:25 2:61 3:235 
0.5329377206738977 1:24 2:56 3:213 
0.3522370700798976 1:99 2:15 3:230 
0.5326333595151872 1:30 2:64 3:3 
0.5257111813344659 1:134 2:205 3:187 
0.5326076835282197 1:15 2:123 3:52 
0.5288631079828032 1:72 2:57 3:202 
0.5326083200916959 1:51 2:209 3:138 
0.5067288301508276 1:102 2:33 3:13 
0.4479086936230282 1:57 2:12 3:255 
0.532610323802864 1:223 2:229 3:226 
0.476436646914648 1:38 2:50 3:246 
0.5259871158028924 1:25 2:96 3:233 
0.514185949493456 1:11 2:67 3:212 
0.5325929483675982 1:151 2:107 3:181 
0.5224568629123865 1:38 2:83 3:242 
0.532417470598619 1:87 2:210 3:233 
0.5323553869710917 1:9 2:212 3:51 
0.53262064948488 1:181 2:245 3:178 
0.5276577033823457 1:3 2:198 3:196 
0.5303570339447488 1:0 2:89 3:245 
0.5129963414446432 1:9 2:63 3:226 
0.532586740505034 1:106 2:92 3:215 
0.5324997757957697 1:25 2:34 3:113 
0.420304901217443 1:52 2:20 3:240 
0.5324385687663403 1:234 2:229 3:96 
0.5320031395923903 1:4 2:0 3:217 
0.5326231671922 1:199 2:3 3:213 
0.5325973591825186 1:229 2:44 3:130 
0.5325893859756161 1:6 2:64 3:135 
0.5326104407998914 1:242 2:143 3:196 
0.5325892288653697 1:141 2:196 3:19 
0.5326237801653566 1:249 2:83 3:27 
0.5325944726670075 1:187 2:204 3:215 
0.5040232830618263 1:58 2:80 3:227 
0.4955700880087597 1:86 2:81 3:203 
0.5327196795212019 1:222 2:150 3:139 
0.4478524801962664 1:95 2:71 3:233 
0.4974531358792668 1:82 2:7 3:247 
0.350100175349267 1:31 2:45 3:246 
0.5238252380489786 1:43 2:14 3:240 
0.5134764554278928 1:229 2:212 3:117 
0.5326205387973431 1:189 2:41 3:31 
0.5319760674886937 1:59 2:15 3:219 
0.5266004959097559 1:16 2:75 3:223 
0.5326833857883069 1:103 2:123 3:233 
0.4479026411902193 1:85 2:1 3:203 
0.5319244927557163 1:99 2:75 3:219 
0.5324174149032774 1:68 2:60 3:215 
0.5326246261050365 1:105 2:235 3:206 
0.5325957390505915 1:113 2:110 3:133 
0.4774263298500782 1:90 2:78 3:235 
0.5325938347658237 1:124 2:152 3:195 
0.5307486184618748 1:202 2:221 3:11 
0.5325792704986729 1:225 2:204 3:0 
0.5264965526777282 1:28 2:36 3:243 
0.5230467578632627 1:26 2:73 3:231 
0.5328122413920018 1:212 2:86 3:194 
0.5325805735384577 1:117 2:88 3:163 
0.5328074435099883 1:89 2:187 3:17 
0.5073065979207593 1:242 2:203 3:29 
0.5326222545338419 1:215 2:179 3:148 
0.4213983849656744 1:163 2:207 3:71 
0.5325833097882168 1:218 2:74 3:96 
0.4399490869109506 1:27 2:88 3:231 
0.5195108700026991 1:22 2:41 3:224 
0.5309012851134933 1:186 2:91 3:158 
0.5326028176514427 1:110 2:110 3:100 
0.5326254104880972 1:45 2:5 3:76 
0.4200046827131408 1:85 2:75 3:214 
0.5077806450677991 1:80 2:34 3:214 
0.5325775914794766 1:212 2:151 3:193 
0.5325566336018304 1:66 2:154 3:212 
0.5326385447361495 1:104 2:116 3:185 
0.5138405326509621 1:81 2:38 3:230 
0.5325799870727522 1:44 2:179 3:209 
0.5326099486020717 1:181 2:22 3:239 
0.4098096473408234 1:74 2:75 3:252 
0.3199131121273907 1:74 2:50 3:202 
0.2778059200552451 1:41 2:80 3:204 
0.5147992376160986 1:40 2:52 3:204 
0.5325919838725272 1:243 2:197 3:164 
0.5330255843867788 1:35 2:129 3:136 
0.4054190474396304 1:36 2:62 3:246 
0.506698639951072 1:4 2:2 3:213 
0.5144063337277668 1:137 2:120 3:131 
0.5276687989204768 1:164 2:236 3:181 
0.3106016574005006 1:189 2:28 3:102 
0.5324230416959688 1:17 2:216 3:149 
0.3518408999518385 1:7 2:69 3:97 
0.5316613252237974 1:113 2:200 3:3 
0.5304960506119776 1:22 2:2 3:240 
0.5256961537372553 1:151 2:100 3:151 
0.5232719994758535 1:82 2:66 3:208 
0.4696425754434096 1:79 2:96 3:229 
0.5325919852479347 1:61 2:191 3:168 
0.5330516427285172 1:6 2:18 3:186 
0.5205548111955951 1:91 2:48 3:205 
0.5324505569123263 1:124 2:11 3:193 
0.5257223384679388 1:5 2:135 3:141 
0.530482811576106 1:73 2:29 3:213 
0.52522735288496 1:43 2:82 3:219 
0.4173390203340657 1:65 2:34 3:205 
0.5166924356406783 1:67 2:72 3:216 
0.5325813564776096 1:169 2:135 3:37 
0.5326813165042662 1:184 2:137 3:179 
0.454527512288309 1:17 2:59 3:204 
0.5326212328358957 1:209 2:89 3:154 
0.5327137049241062 1:107 2:52 3:220 
0.5326256553537753 1:199 2:133 3:244 
0.532625135846343 1:130 2:243 3:173 
0.4387367907424635 1:90 2:24 3:225 
0.5325937249032691 1:162 2:188 3:123 
0.5326236694264505 1:189 2:49 3:138 
0.5326718491720206 1:98 2:231 3:238 
0.5325976378269015 1:60 2:229 3:11 
0.5205320484033011 1:73 2:64 3:251 
0.5325832729308166 1:65 2:209 3:145 
0.5092596341648874 1:13 2:47 3:239 
0.479218770399034 1:78 2:41 3:243 
0.5325836550311656 1:254 2:86 3:168 
0.5326261226805229 1:50 2:48 3:42 
0.3588059927015328 1:28 2:76 3:232 
0.5325883058528024 1:146 2:118 3:10 
0.518869774985929 1:11 2:93 3:253 
0.5325827547276241 1:175 2:36 3:149 
0.5326027278803667 1:32 2:113 3:210 
0.5299195893196356 1:98 2:6 3:220 
0.364603840354637 1:41 2:21 3:250 
0.5307559286926343 1:173 2:125 3:216 
0.5319069664053886 1:0 2:82 3:236 
0.5307502717210195 1:32 2:20 3:167 
0.5326165075493121 1:74 2:115 3:249 
0.532608274089066 1:184 2:130 3:197 
0.5324831259586356 1:104 2:67 3:180 
0.5326266245353779 1:65 2:173 3:173 
0.5277921161813803 1:78 2:20 3:245 
0.532592604085516 1:201 2:237 3:84 
0.5326187058622104 1:24 2:223 3:28 
0.5326191273943375 1:69 2:232 3:61 
0.5317126655873348 1:89 2:8 3:245 
0.5325944786824702 1:97 2:85 3:84 
0.5326052897374355 1:17 2:117 3:14 
0.4963210805798822 1:6 2:38 3:249 
0.5326249257022687 1:238 2:25 3:34 
0.5020109087336346 1:96 2:72 3:242 
0.5326204163988628 1:0 2:198 3:149 
0.5318309500263085 1:97 2:83 3:200 
0.5330756739459184 1:248 2:122 3:212 
0.5327095085567894 1:36 2:147 3:112 
0.5301339140186043 1:0 2:99 3:244 
0.4235584128619608 1:93 2:7 3:231 
0.5259421386079839 1:49 2:6 3:249 
0.3358799823301337 1:65 2:42 3:216 
0.5325946882938807 1:41 2:244 3:173 
0.5069474879040154 1:72 2:48 3:252 
0.5139102870708554 1:24 2:79 3:239 
0.5324013394597455 1:6 2:47 3:171 
0.5323303284968833 1:10 2:248 3:221 
0.5326220648554261 1:228 2:168 3:161 
0.5326223005251848 1:72 2:220 3:182 
0.3723233817019684 1:77 2:44 3:244 
0.4959712216652752 1:55 2:45 3:211 
0.365074901115661 1:29 2:72 3:222 
0.5325907460329591 1:222 2:158 3:231 
0.532624180651921 1:115 2:10 3:25 
0.5326078554150673 1:4 2:76 3:172 
0.5326253015704348 1:223 2:247 3:221 
0.3099787231693984 1:192 2:180 3:103 
0.5319038381355232 1:115 2:168 3:82 
0.5267045920722637 1:111 2:169 3:211 
0.5326015903691302 1:30 2:97 3:191 
0.5325956763100057 1:249 2:88 3:149 
0.5326104857726954 1:119 2:112 3:244 
0.5034757060746952 1:74 2:38 3:202 
0.5325892620891701 1:98 2:76 3:178 
0.4678461331357583 1:9 2:5 3:247 
0.5325651848050709 1:40 2:100 3:203 
0.5325860725791403 1:240 2:216 3:163 
0.5325897599572973 1:150 2:207 3:23 
0.5325866981631211 1:98 2:102 3:128 
0.5307715841260283 1:20 2:81 3:224 
0.5048996838298339 1:23 2:98 3:245 
0.5325908999630609 1:60 2:225 3:169 
0.4944499246558148 1:29 2:69 3:218 
0.522357978046974 1:46 2:58 3:200 
0.5324671425803689 1:3 2:132 3:115 
0.5326112363835075 1:156 2:122 3:202 
0.5320134703153452 1:29 2:16 3:217 
0.5326035513386514 1:128 2:54 3:72 
0.4445202341202515 1:75 2:25 3:205 
0.5325893545204092 1:181 2:97 3:31 
0.5325011027997035 1:30 2:22 3:234 
0.4023841714670772 1:91 2:82 3:223 
0.5326419742299769 1:157 2:194 3:41 
0.507492305901843 1:34 2:34 3:251 
0.4904648688019088 1:65 2:90 3:234 
0.3093471547203183 1:45 2:87 3:46 
0.5271497774139777 1:53 2:23 3:206 
0.5326376542794429 1:199 2:108 3:221 
0.5325836297253592 1:99 2:164 3:57 
0.5307610445292293 1:83 2:34 3:255 
0.3619616660452162 1:80 2:50 3:245 
0.5325928976743255 1:46 2:242 3:80 
0.5325855002074205 1:123 2:216 3:49 
0.530018770284526 1:48 2:54 3:254 
0.4031773927979198 1:53 2:67 3:232 
0.5326170803978307 1:130 2:73 3:178 
0.439973729605335 1:97 2:10 3:235 
0.5261942583607755 1:96 2:74 3:236 
0.5325836342640808 1:169 2:71 3:147 
0.4552644282482903 1:54 2:51 3:253 
0.5326053486222264 1:45 2:192 3:11 
0.5073024275041522 1:62 2:13 3:244 
0.5308688658253746 1:225 2:39 3:89 
0.4598371063210147 1:16 2:6 3:238 
0.5326241382656456 1:126 2:57 3:241 
0.5100899418434297 1:87 2:99 3:225 
0.3945758805096125 1:38 2:44 3:213 
0.5326375469770203 1:209 2:71 3:192 
0.446005267562115 1:95 2:12 3:228 
0.5319479352317056 1:21 2:14 3:224 
0.5321068543883285 1:27 2:81 3:215 
0.3526119095134553 1:46 2:169 3:161 
0.5078551082190228 1:9 2:173 3:166 
0.5283980971789708 1:55 2:2 3:238 
0.5325800033225545 1:169 2:145 3:225 
0.5326264057892752 1:6 2:140 3:184 
0.4964380161149871 1:91 2:25 3:232 
0.4594101086947422 1:71 2:52 3:207 
0.5326113496376444 1:152 2:42 3:226 
0.532588222689408 1:146 2:13 3:235 
0.532592657695805 1:175 2:120 3:205 
0.5326215774040448 1:43 2:119 3:86 
0.5323254633743717 1:227 2:195 3:199 
0.5276540022415616 1:45 2:185 3:20 
0.5331296714330194 1:63 2:101 3:60 
0.3661509048979388 1:46 2:22 3:213 
0.5256961523415901 1:241 2:36 3:3 
0.5165460166114019 1:88 2:78 3:200 
0.5324884375523811 1:81 2:221 3:252 
0.52160237069321 1:34 2:60 3:220 
0.3566281476026666 1:65 2:92 3:242 
0.2486921916703033 1:78 2:11 3:208 
0.5053706213065607 1:54 2:7 3:225 
0.4652066527828486 1:80 2:83 3:204 
0.461808276267617 1:39 2:52 3:248 
0.5326379451632399 1:187 2:35 3:151 
0.5317781750484245 1:98 2:89 3:246 
0.3488129418961088 1:19 2:52 3:240 
0.4769617117288547 1:98 2:85 3:233 
0.5321127020775213 1:35 2:8 3:254 
0.5291941871655552 1:31 2:12 3:225 
0.5136583626544801 1:145 2:60 3:94 
0.5140066901224782 1:35 2:53 3:219 
0.5325921872373394 1:113 2:8 3:44 
0.4317353030045092 1:53 2:15 3:254 
0.5325953114904738 1:40 2:203 3:50 
0.5277706771783615 1:91 2:86 3:232 
0.5163514485643945 1:36 2:81 3:226 
0.5326108115558238 1:84 2:142 3:119 
0.5326136341258186 1:191 2:26 3:79 
0.4939663339622096 1:71 2:46 3:205 
0.02587768626546388 1:29 2:69 3:218 
0.3098006130897059 1:38 2:64 3:239 
0.5326432502928956 1:31 2:17 3:237 
0.5302853928345029 1:44 2:10 3:255 
0.5326367930955618 1:141 2:97 3:235 
0.5329106136178967 1:178 2:193 3:32 
0.4591950252924287 1:66 2:22 3:249 
0.5327707656418957 1:222 2:103 3:184 
0.5326221581658552 1:85 2:137 3:13 
0.5319016950792518 1:158 2:15 3:154 
0.4142034557639658 1:60 2:52 3:243 
0.5326251358446207 1:110 2:255 3:69 
0.5326169072506706 1:216 2:170 3:30 
0.5267570894110469 1:88 2:55 3:243 
0.5153901066059033 1:32 2:97 3:253 
0.5067008297761011 1:4 2:95 3:78 
0.5326136150064281 1:72 2:122 3:166 
0.5326290715260847 1:127 2:205 3:130 
0.5086758320897515 1:74 2:84 3:255 
0.5326150834342032 1:76 2:215 3:142 
0.5324950890268079 1:171 2:122 3:190 
0.5325958792384288 1:150 2:247 3:9 
0.5325361251306602 1:64 2:103 3:131 
0.5325913810734848 1:73 2:5 3:102 
0.5325897043362084 1:8 2:124 3:66 
0.5307440501730389 1:236 2:178 3:249 
0.5322391746300137 1:145 2:252 3:149 
0.5328412286741706 1:111 2:236 3:8 
0.5325853516227528 1:19 2:197 3:226 
0.5316676119364768 1:222 2:58 3:154 
0.4691867192101076 1:121 2:243 3:56 
0.5316439991489624 1:95 2:39 3:245 
0.4677233695378352 1:22 2:33 3:209 
0.422078768393619 1:4 2:11 3:231 
0.4595438752178389 1:82 2:62 3:210 
0.5326247614577195 1:150 2:2 3:150 
0.5326185009696744 1:35 2:208 3:21 
0.4010134811885619 1:78 2:97 3:243 
0.4652178880726286 1:38 2:38 3:213 
0.5326384992621098 1:58 2:105 3:175 
0.522311365044144 1:27 2:37 3:219 
0.5179801601831955 1:7 2:5 3:223 
0.5325964567802857 1:39 2:32 3:73 
0.5268167857917444 1:52 2:92 3:204 
0.5326632626952453 1:211 2:8 3:172 
0.5326211751151221 1:1 2:186 3:184 
0.4919350684100902 1:90 2:71 3:218 
0.5139183262664766 1:51 2:13 3:229 
0.5325149225939521 1:103 2:35 3:73 
0.4768826011726151 1:92 2:86 3:202 
0.4477900011912263 1:128 2:101 3:187 
0.4999988402344258 1:58 2:31 3:204 
0.5326617668023854 1:162 2:54 3:56 
0.530416564890218 1:39 2:15 3:255 
0.5326234030284606 1:215 2:138 3:217 
0.5321806353018314 1:171 2:219 3:98 
0.5011221557776124 1:62 2:99 3:207 
0.5326332976930321 1:124 2:13 3:86 
0.5192778120176476 1:48 2:59 3:222 
0.5313176423973305 1:61 2:223 3:141 
0.4429506258552749 1:49 2:56 3:229 
0.5326112956994702 1:126 2:143 3:65 
0.529745341590066 1:81 2:47 3:253 
0.5257647598498174 1:5 2:99 3:255 
0.5326071409698766 1:113 2:143 3:57 
0.5063693705351493 1:247 2:91 3:247 
0.388852015877079 1:80 2:48 3:236 
0.5324274299770301 1:244 2:58 3:222 
0.5324436364016747 1:106 2:58 3:158 
0.5325405072132064 1:210 2:171 3:175 
0.2972251347504633 1:4 2:11 3:252 
0.450269164058164 1:78 2:91 3:231 
0.5326631445699452 1:195 2:99 3:238 
0.5322440607098646 1:82 2:240 3:116 
0.5325906793995462 1:50 2:119 3:64 
0.5325840636882396 1:157 2:44 3:180 
0.5312747496214796 1:2 2:104 3:239 
0.5170743460450751 1:74 2:81 3:250 
0.5326271089800449 1:232 2:60 3:69 
0.5075759507676434 1:15 2:84 3:235 
0.5326634196845024 1:51 2:35 3:85 
0.4686022081355113 1:77 2:25 3:207 
0.4594451386651371 1:82 2:46 3:225 
0.532597190260655 1:22 2:240 3:127 
0.5007414389347905 1:44 2:42 3:247 
0.5054560302962592 1:66 2:51 3:237 
0.3517158663373124 1:201 2:93 3:152 
0.5327158967478849 1:210 2:208 3:58 
0.5015262499793889 1:87 2:12 3:203 
0.533146998311899 1:128 2:158 3:169 
0.5326133422699985 1:99 2:104 3:212 
0.5048414784829933 1:4 2:81 3:245 
0.5328172502935363 1:137 2:141 3:175 
0.5330507769751021 1:227 2:242 3:57 
0.5325855314946786 1:172 2:128 3:68 
0.5326084787403319 1:26 2:137 3:115 
0.5326558939421219 1:236 2:117 3:5 
0.5330490460909272 1:147 2:1 3:235 
0.5329165632483297 1:22 2:119 3:86 
0.53261531515986 1:104 2:235 3:16 
0.5312802233054085 1:129 2:63 3:243 
0.5319243113027452 1:154 2:17 3:154 
0.532619034028559 1:197 2:234 3:227 
0.5143256586593583 1:101 2:155 3:57 
0.5320196499672112 1:48 2:65 3:246 
0.5328121384230842 1:83 2:251 3:254 
0.4424541244214071 1:17 2:64 3:237 
0.4482174865423492 1:98 2:10 3:233 
0.5326059937328663 1:28 2:1 3:251 
0.533047896412417 1:71 2:189 3:101 
0.5306677222046633 1:100 2:42 3:217 
0.5322849822136904 1:157 2:215 3:34 
0.2685171575150603 1:19 2:48 3:243 
0.5329775306567219 1:60 2:129 3:138 
0.5295185432476879 1:50 2:47 3:221 
0.4773339002176951 1:80 2:87 3:226 
0.473434318106747 1:83 2:20 3:214 
0.5325928105427862 1:176 2:242 3:101 
0.5326016727502332 1:47 2:226 3:36 
0.46763788447323 1:78 2:72 3:252 
0.5326261197581411 1:109 2:245 3:217 
0.5201350743301205 1:52 2:12 3:217 
0.4513573386240999 1:38 2:78 3:246 
0.5247401132956397 1:66 2:94 3:252 
0.4241413847932958 1:100 2:92 3:235 
0.3470602090298573 1:85 2:24 3:222 
0.5325872786622046 1:217 2:123 3:26 
0.5329569214237606 1:96 2:113 3:129 
0.5291025825602067 1:27 2:64 3:205 
0.5326217808167903 1:228 2:49 3:178 
0.5327100169229158 1:183 2:212 3:97 
0.4700430832524735 1:75 2:63 3:202 
0.5311905273945454 1:2 2:40 3:208 
0.5306522181512129 1:0 2:6 3:252 
0.532247938877578 1:201 2:54 3:52 
0.3105621971150964 1:1 2:48 3:231 
0.5329531856814187 1:62 2:58 3:102 
0.5134727453662427 1:22 2:14 3:213 
0.3242283728970214 1:40 2:68 3:247 
0.532266446768941 1:16 2:144 3:43 
0.5328158572368688 1:250 2:26 3:106 
0.5217014026115674 1:85 2:10 3:228 
0.4694060007534988 1:57 2:68 3:243 
0.3074220687469248 1:48 2:4 3:232 
0.5142530814960575 1:205 2:88 3:167 
0.5326134794128892 1:238 2:170 3:10 
0.5325877065708771 1:113 2:144 3:41 
0.5330968543203285 1:235 2:172 3:197 
0.5072138613908581 1:57 2:42 3:239 
0.5256225834851282 1:156 2:91 3:123 
0.5325696864631686 1:107 2:242 3:6 
0.5326013162846818 1:58 2:63 3:16 
0.5325459527722348 1:25 2:8 3:150 
0.5325875257069888 1:126 2:21 3:16 
0.5315961286452182 1:98 2:87 3:250 
0.5304697766746662 1:5 2:61 3:224 
0.532592603949156 1:237 2:121 3:78 
0.5329349027364754 1:121 2:207 3:38 
0.4477265969289476 1:74 2:22 3:242 
0.5314889819465987 1:70 2:55 3:235 
0.1500013400531396 1:66 2:46 3:254 
0.2770539086215953 1:5 2:32 3:255 
0.4695884571357311 1:59 2:198 3:130 
0.4691733373111643 1:77 2:168 3:223 
0.5299472128524598 1:21 2:184 3:101 
0.5316281632576952 1:29 2:63 3:213 
0.5326370607536335 1:44 2:23 3:64 
0.5323729153044305 1:43 2:38 3:205 
0.5328392908247599 1:217 2:146 3:124 
0.4335254440232654 1:90 2:61 3:226 
0.5326140684975023 1:73 2:115 3:200 
0.5325930617769419 1:0 2:146 3:79 
0.5325822339648218 1:131 2:64 3:124 
0.3891832516479284 1:117 2:141 3:50 
0.5326379459144102 1:216 2:126 3:158 
0.5320717285340735 1:38 2:121 3:210 
0.5328096184105633 1:147 2:218 3:118 
0.5326051225444347 1:169 2:64 3:151 
0.4126669939233112 1:44 2:40 3:216 
0.5131185535001019 1:92 2:73 3:245 
0.3463174772114558 1:61 2:38 3:203 
0.5191070051031776 1:83 2:50 3:235 
0.532622687859998 1:91 2:57 3:255 
0.5325544725765706 1:77 2:203 3:178 
0.5325802216762094 1:129 2:56 3:231 
0.5326204335924235 1:101 2:155 3:35 
0.2776548862145531 1:79 2:3 3:210 
0.5320783980463089 1:6 2:85 3:213 
0.3535186321997583 1:78 2:86 3:247 
0.4253056290111927 1:99 2:52 3:244 
0.4258557650101417 1:27 2:23 3:216 
0.5312353334835886 1:57 2:7 3:199 
0.2798471832001657 1:86 2:46 3:225 
0.5327778510888688 1:18 2:102 3:61 
0.4284523891449288 1:74 2:3 3:223 
0.5236432505745579 1:56 2:91 3:222 
0.5307453080106519 1:53 2:4 3:207 
0.4820053123091168 1:80 2:5 3:244 
0.3640401096114037 1:22 2:60 3:207 
0.5327420882999003 1:3 2:108 3:132 
0.532579704238813 1:44 2:205 3:14 
0.5325919457152567 1:4 2:63 3:14 
0.4307364722281088 1:28 2:81 3:227 
0.4440616457194506 1:31 2:82 3:236 
0.4262647225363144 1:26 2:76 3:233 
0.532666109700545 1:146 2:57 3:178 
0.5325023948759862 1:81 2:35 3:96 
0.5325705674647992 1:47 2:31 3:228 
0.5326366364012425 1:240 2:250 3:6 
0.5325927020499244 1:181 2:33 3:63 
0.3601284050820668 1:88 2:66 3:242 
0.5325780495169288 1:32 2:237 3:94 
0.5186740688974859 1:4 2:70 3:243 
0.5326565158346895 1:209 2:111 3:91 
0.5329845134651933 1:217 2:39 3:77 
0.5325972712291659 1:76 2:194 3:234 
0.4971048350579009 1:16 2:33 3:255 
0.4009934032178342 1:69 2:84 3:242 
0.5326269087470874 1:18 2:161 3:13 
0.5325990992237157 1:98 2:167 3:101 
0.532624180926986 1:172 2:65 3:180 
0.4449027693031444 1:7 2:7 3:244 
0.5326299533572991 1:118 2:68 3:143 
0.5326113804092538 1:145 2:253 3:96 
0.5294420704841132 1:235 2:31 3:82 
0.5326239876542842 1:100 2:12 3:81 
0.5325751103565912 1:221 2:196 3:101 
0.4499951809742388 1:43 2:40 3:214 
0.5325919985084366 1:4 2:10 3:200 
0.4680014043426448 1:51 2:95 3:237 
0.5326152337466502 1:10 2:202 3:89 
0.3030146503717274 1:1 2:47 3:231 
0.5158921387528956 1:96 2:79 3:203 
0.5324671919337065 1:63 2:92 3:201 
0.5242312779956146 1:68 2:13 3:240 
0.5324568246772021 1:204 2:187 3:59 
0.5326237570223504 1:200 2:211 3:9 
0.4545966241566035 1:59 2:58 3:220 
0.3110223405591186 1:65 2:31 3:211 
0.4975460829506835 1:100 2:2 3:246 
0.5182185774046972 1:33 2:56 3:253 
0.5140588873560213 1:107 2:19 3:16 
0.5306692161595716 1:32 2:26 3:255 
0.5307707120807388 1:46 2:132 3:193 
0.5325903298430581 1:163 2:224 3:154 
0.5325888670961922 1:190 2:242 3:142 
0.2912035803976203 1:90 2:23 3:205 
0.5202829827507425 1:62 2:79 3:237 
0.5322500087890163 1:40 2:97 3:215 
0.3097631055680605 1:80 2:37 3:240 
0.4741164123949612 1:68 2:64 3:231 
0.5326264928472115 1:61 2:58 3:83 
0.4441791140769883 1:3 2:100 3:205 
0.4157881954728955 1:82 2:75 3:238 
0.532556154502952 1:78 2:99 3:219 
0.4369943887942641 1:89 2:26 3:252 
0.5058625891553166 1:99 2:95 3:241 
0.5257112935986042 1:238 2:36 3:5 
0.5215374990366535 1:41 2:90 3:229 
0.5325935586917883 1:153 2:159 3:214 
0.5325449439450095 1:236 2:136 3:227 
0.5325852333414864 1:25 2:69 3:70 
0.3288095260657602 1:48 2:92 3:223 
0.5262624877659414 1:18 2:11 3:215 
0.5327215051210763 1:21 2:181 3:83 
0.5325838235088991 1:20 2:185 3:18 
0.2177595203902856 1:47 2:82 3:206 
0.5326230432958711 1:231 2:44 3:171 
0.4478383348780588 1:231 2:50 3:146 
0.4687964829921614 1:78 2:167 3:221 
0.4684801229890873 1:2 2:30 3:225 
0.4669670939411533 1:57 2:31 3:239 
0.5307525478908379 1:188 2:89 3:161 
0.3321372568522697 1:82 2:78 3:235 
0.4117746319927644 1:18 2:74 3:237 
0.5326163374954381 1:159 2:175 3:129 
0.5328703506406244 1:16 2:238 3:90 
0.3914227793415318 1:94 2:27 3:226 
0.4905015385344197 1:80 2:36 3:227 
0.4963064072599285 1:59 2:54 3:241 
0.5325846922666065 1:98 2:219 3:182 
0.5193151209402898 1:98 2:26 3:218 
0.5310142035742427 1:38 2:21 3:242 
0.5326571953603629 1:40 2:170 3:17 
0.5325892642901071 1:189 2:161 3:184 
0.5000000950358992 1:6 2:58 3:201 
0.5004889266659081 1:98 2:23 3:220 
0.4218118815410546 1:163 2:207 3:69 
0.5324995595969524 1:22 2:66 3:20 
0.3828095095327517 1:54 2:36 3:239 
0.2831557608426454 1:28 2:9 3:251 
0.5326310958238868 1:0 2:3 3:135 
0.533125306812094 1:55 2:89 3:9 
0.5075720400195873 1:56 2:42 3:230 
0.5319676518633275 1:28 2:52 3:249 
0.2649958019000151 1:45 2:22 3:212 
0.532595285233376 1:222 2:137 3:176 
0.5326369928020885 1:240 2:79 3:161 
0.4824571263820273 1:88 2:85 3:224 
0.5325888316270425 1:198 2:38 3:158 
0.5325940740256527 1:225 2:190 3:34 
0.4652934672802091 1:82 2:23 3:209 
0.5325820216177131 1:239 2:19 3:83 
0.5325843052470083 1:119 2:33 3:86 
0.5131736128959354 1:48 2:76 3:238 
0.5331239730216331 1:197 2:26 3:163 
0.5084628803238538 1:29 2:31 3:222 
0.5321791922902521 1:117 2:53 3:100 
0.5326663688659661 1:224 2:129 3:118 
0.3483209269773495 1:21 2:92 3:215 
0.5325836262999771 1:95 2:108 3:241 
0.4570781056917972 1:86 2:81 3:215 
0.5306954619178528 1:54 2:94 3:252 
0.5325732436141735 1:172 2:220 3:13 
0.5326152014756863 1:188 2:230 3:117 
0.5325879886933842 1:34 2:188 3:181 
0.5212781784418322 1:20 2:22 3:201 
0.5190411798030292 1:54 2:176 3:30 
0.4724561634660169 1:45 2:41 3:233 
0.5286615631279703 1:64 2:17 3:227 
0.5326001010899915 1:96 2:50 3:95 
0.5319413807169064 1:159 2:118 3:22 
0.5195031746388271 1:28 2:88 3:217 
0.4195376922755553 1:54 2:59 3:254 
0.458196247630948 1:11 2:43 3:243 
0.5325928004762934 1:237 2:125 3:7 
0.5325902600081661 1:7 2:126 3:134 
0.5325008185282074 1:11 2:196 3:105 
0.5248811653244347 1:86 2:66 3:249 
0.5208027877786663 1:32 2:30 3:224 
0.5330548975098123 1:249 2:127 3:151 
0.5325804683325637 1:119 2:243 3:108 
0.5325972154349288 1:98 2:133 3:51 
0.5308047941244667 1:9 2:28 3:241 
0.5318774840516542 1:10 2:31 3:231 
0.5325790860827636 1:212 2:251 3:51 
0.5325984631980765 1:22 2:186 3:80 
0.5325878721359225 1:76 2:222 3:166 
0.5305787127723736 1:92 2:63 3:251 
0.5325964154283913 1:188 2:99 3:82 
0.5193151284691819 1:86 2:238 3:91 
0.3926887646757716 1:67 2:96 3:227 
0.5320309917898751 1:2 2:44 3:246 
0.5330976890060219 1:30 2:111 3:167 
0.447970661822023 1:252 2:32 3:116 
0.5281596499316763 1:28 2:12 3:202 
0.3379037712210739 1:94 2:7 3:208 
0.5326057055831473 1:144 2:18 3:220 
0.5326586612943529 1:133 2:168 3:102 
0.5326197630755476 1:173 2:100 3:48 
0.5326214085774437 1:128 2:191 3:245 
0.5330256770643067 1:176 2:135 3:170 
0.5326364095406153 1:182 2:179 3:135 
0.4689866338466749 1:96 2:87 3:242 
0.5326539644020989 1:246 2:125 3:14 
0.5191844917275407 1:7 2:94 3:255 
0.5253027930572871 1:47 2:59 3:244 
0.3896700665065768 1:40 2:80 3:212 
0.3106913979371297 1:52 2:34 3:253 
0.5325822810839413 1:160 2:104 3:56 
0.4808081042413864 1:10 2:97 3:238 
0.3836055559141163 1:22 2:97 3:213 
0.5326043211948519 1:168 2:17 3:115 
0.5325842648324344 1:228 2:191 3:102 
0.2254376116533899 1:1 2:80 3:242 
0.5325879473378088 1:230 2:182 3:107 
0.5326166749850652 1:148 2:216 3:239 
0.5320392600254651 1:12 2:63 3:255 
0.5325912232745131 1:238 2:70 3:136 
0.5321421489608096 1:107 2:92 3:67 
0.5273126299814277 1:114 2:167 3:210 
0.5326255183806805 1:159 2:98 3:156 
0.5325995396170086 1:159 2:36 3:87 
0.5324292344961721 1:182 2:189 3:243 
0.5320645095557557 1:97 2:45 3:231 
0.4971567901623672 1:17 2:26 3:253 
0.5269782673722336 1:88 2:14 3:218 
0.48084977614472 1:46 2:80 3:205 
0.3581058480832163 1:80 2:3 3:211 
0.5325588367064896 1:194 2:181 3:62 
0.5325783097851826 1:178 2:17 3:200 
0.5325881083781819 1:236 2:120 3:154 
0.4979949564756633 1:233 2:96 3:206 
0.5326052921886095 1:7 2:173 3:117 
0.2247918781077006 1:55 2:96 3:205 
0.5325772789603472 1:253 2:36 3:99 
0.5326013157741641 1:95 2:219 3:28 
0.512478422725577 1:82 2:40 3:210 
0.5325907618018757 1:24 2:218 3:213 
0.5326349536125539 1:96 2:10 3:171 
0.4847315272319454 1:31 2:57 3:228 
0.5329538591130342 1:66 2:122 3:61 
0.5325939261237551 1:53 2:93 3:0 
0.5326384408706093 1:135 2:80 3:250 
0.5067976764541899 1:93 2:48 3:248 
0.5208379430660368 1:36 2:50 3:243 
0.3581861346723664 1:54 2:88 3:215 
0.4713823651297725 1:84 2:43 3:227 
0.5326370137890848 1:149 2:216 3:164 
0.532636352438967 1:144 2:71 3:140 
0.4486656206331216 1:9 2:21 3:232 
0.5325802254854852 1:245 2:126 3:41 
0.4040219474585782 1:28 2:75 3:235 
0.5325347503374172 1:7 2:64 3:233 
0.5018962673660701 1:91 2:90 3:251 
0.5331056770242205 1:80 2:91 3:88 
0.5316607242167148 1:119 2:125 3:179 
0.5325908443572541 1:2 2:205 3:253 
0.4183677760817142 1:7 2:99 3:240 
0.5323880449693896 1:86 2:24 3:44 
0.5074352906175461 1:100 2:49 3:185 
0.5326266108449638 1:83 2:222 3:86 
0.532589664724167 1:253 2:4 3:153 
0.5326239654622797 1:129 2:14 3:253 
0.5020370021420405 1:32 2:6 3:201 
0.5325840212162306 1:249 2:215 3:28 
0.4707143560502907 1:71 2:96 3:245 
0.5330726187312826 1:190 2:2 3:108 
0.5316039669469534 1:9 2:67 3:229 
0.4487129660654451 1:69 2:97 3:208 
0.5326042267527644 1:103 2:78 3:101 
0.5069677724242676 1:49 2:50 3:235 
0.5325922346060166 1:25 2:173 3:209 
0.5326371639662889 1:2 2:65 3:188 
0.5321351625157094 1:90 2:51 3:49 
0.5312911409221474 1:232 2:220 3:135 
0.3868455773859813 1:59 2:10 3:236 
0.5324253038955733 1:243 2:229 3:150 
0.3830388374601009 1:7 2:11 3:233 
0.3518272745682069 1:80 2:86 3:215 
0.5326210358951269 1:80 2:110 3:161 
0.4802828988004608 1:75 2:82 3:253 
0.5325828673692163 1:34 2:2 3:186 
0.5329169754704232 1:216 2:111 3:245 
0.5326373128466151 1:111 2:72 3:245 
0.5152327263957728 1:18 2:89 3:220 
0.5271623765381274 1:9 2:83 3:254 
0.5325873786377517 1:240 2:185 3:35 
0.5326370942212119 1:0 2:116 3:36 
0.5325540665177686 1:205 2:47 3:3 
0.5216666650598609 1:3 2:48 3:211 
0.5326310664121469 1:30 2:214 3:132 
0.5141058165068327 1:65 2:8 3:220 
0.5325908716658461 1:151 2:8 3:203 
0.5325801775729414 1:108 2:131 3:194 
0.5326230432964009 1:182 2:31 3:73 
0.5304174921628655 1:28 2:41 3:235 
0.5325744969165682 1:42 2:253 3:160 
0.4486176433163442 1:251 2:28 3:22 
0.3461562388731343 1:38 2:66 3:232 
0.4799126264110113 1:37 2:83 3:209 
0.532583372361539 1:11 2:247 3:198 
0.5325609032824379 1:89 2:69 3:223 
0.4691810848525371 1:180 2:73 3:95 
0.5325838076854316 1:196 2:95 3:26 
0.5326663233221313 1:174 2:32 3:128 
0.5325445023463692 1:169 2:187 3:201 
0.5142632929314228 1:203 2:227 3:190 
0.529864646316258 1:73 2:52 3:234 
0.5325833176937944 1:213 2:62 3:87 
0.4350190145969382 1:25 2:71 3:237 
0.5325872485303285 1:187 2:250 3:177 
0.5322571648750758 1:11 2:3 3:207 
0.5195380373765405 1:57 2:43 3:216 
0.532621458290357 1:220 2:184 3:79 
0.4635314078375398 1:22 2:52 3:200 
0.5317250607236258 1:76 2:32 3:252 
0.5326337717004584 1:44 2:42 3:180 
0.5325990454121133 1:39 2:244 3:93 
0.5330345152578773 1:77 2:5 3:204 
0.5326295943614618 1:86 2:120 3:79 
0.5321761597259034 1:219 2:191 3:150 
0.5325356833402334 1:22 2:63 3:127 
0.5189018726736601 1:28 2:48 3:211 
0.4469524321829341 1:76 2:90 3:205 
0.4214370817449273 1:107 2:50 3:104 
0.4442447396983812 1:17 2:38 3:226 
0.5274690568564777 1:63 2:26 3:213 
0.5325935655943841 1:72 2:133 3:138 
0.5326363466656139 1:240 2:106 3:45 
0.5300612543538781 1:13 2:37 3:201 
0.4210956229171665 1:126 2:190 3:144 
0.5327009947148322 1:112 2:127 3:122 
0.5073429959539666 1:13 2:182 3:61 
0.5326073630913126 1:165 2:129 3:243 
0.4665881993070425 1:60 2:41 3:214 
0.5325846330755697 1:88 2:241 3:202 
0.5325931216295585 1:231 2:116 3:92 
0.3519881173981723 1:80 2:87 3:214 
0.5325962728178133 1:152 2:124 3:175 
0.5325967930670892 1:26 2:60 3:29 
0.5300120680807601 1:92 2:78 3:200 
0.5326244898294052 1:84 2:110 3:100 
0.5325895108596502 1:62 2:35 3:119 
0.5327157282048089 1:83 2:75 3:98 
0.5328710184970886 1:233 2:186 3:84 
0.4454001167160553 1:85 2:94 3:213 
0.5325892294555516 1:1 2:85 3:4 
0.5326169567318451 1:61 2:249 3:116 
0.5248754098615378 1:41 2:3 3:234 
0.5326083410137241 1:127 2:132 3:2 
0.5310000345302267 1:86 2:12 3:247 
0.349083721030106 1:51 2:89 3:233 
0.4819590140416994 1:86 2:91 3:203 
0.5325843838880873 1:206 2:129 3:161 
0.5143167901112643 1:6 2:214 3:32 
0.532620509969546 1:41 2:62 3:254 
0.521897152570597 1:34 2:48 3:247 
0.5325869628615241 1:9 2:247 3:85 
0.5121135124099767 1:6 2:37 3:246 
0.5325759346219545 1:133 2:246 3:223 
0.5326266242912491 1:202 2:245 3:158 
0.5326252000799778 1:170 2:184 3:46 
0.5325927971057349 1:63 2:45 3:149 
0.466869796835733 1:37 2:86 3:218 
0.5326210797489688 1:27 2:241 3:99 
0.5152105946122592 1:73 2:92 3:252 
0.532590582612934 1:80 2:14 3:152 
0.5325879271505365 1:90 2:190 3:56 
0.5326244549817626 1:144 2:79 3:202 
0.5325854985591928 1:34 2:147 3:210 
0.530892919651835 1:44 2:62 3:218 
0.4684250591213735 1:31 2:79 3:238 
0.5072524259966333 1:2 2:54 3:225 
0.3231303665031617 1:9 2:48 3:223 
0.5325869321485219 1:118 2:7 3:39 
0.5058370668382667 1:94 2:57 3:213 
0.5325852978781124 1:231 2:251 3:177 
0.5327267495946952 1:110 2:86 3:33 
0.5306991093164737 1:62 2:63 3:230 
0.5299380175532675 1:22 2:84 3:235 
0.5280339973529835 1:228 2:167 3:108 
0.3737858712154355 1:80 2:57 3:247 
0.5204081226768438 1:71 2:31 3:223 
0.5271336683516018 1:31 2:64 3:244 
0.40359739157741 1:55 2:73 3:210 
0.5313098278989981 1:74 2:92 3:15 
0.4014955031972574 1:81 2:49 3:238 
0.532585914964532 1:20 2:244 3:254 
0.5319427896968161 1:73 2:173 3:217 
0.4652954138849762 1:52 2:41 3:221 
0.2538233940586942 1:88 2:69 3:244 
0.5325846792859223 1:13 2:13 3:148 
0.5321100446317968 1:164 2:30 3:39 
0.4232704987297564 1:13 2:65 3:200 
0.5307407691871324 1:215 2:201 3:85 
0.5325877656278876 1:67 2:187 3:186 
0.4806233619408995 1:16 2:42 3:247 
0.4983270761773547 1:87 2:8 3:230 
0.4507437133573634 1:29 2:29 3:250 
0.1796342952217502 1:12 2:69 3:255 
0.2686634994665879 1:47 2:8 3:220 
0.4804991370088272 1:55 2:97 3:216 
0.4479138561717879 1:36 2:51 3:214 
0.5325732699697836 1:32 2:101 3:33 
0.5276299393559554 1:9 2:40 3:214 
0.5235021345809061 1:43 2:3 3:218 
0.505884086750836 1:32 2:50 3:225 
0.5327050209145966 1:168 2:114 3:180 
0.5176504719004325 1:73 2:6 3:211 
0.4827893600815024 1:14 2:27 3:212 
0.5128923214967871 1:77 2:84 3:231 
0.5312753337301501 1:78 2:246 3:162 
0.5325921545640782 1:170 2:121 3:236 
0.5325880725401153 1:126 2:155 3:229 
0.4697263768793641 1:122 2:217 3:2 
0.3837751089035786 1:42 2:96 3:237 
0.5325969371613519 1:61 2:86 3:189 
0.3577498823028304 1:89 2:90 3:210 
0.3364797927987054 1:99 2:79 3:204 
0.5326159382281916 1:163 2:119 3:1 
0.5325509564910516 1:200 2:219 3:187 
0.5326241986104678 1:38 2:121 3:13 
0.5231636811100385 1:78 2:63 3:214 
0.5325986273000112 1:69 2:213 3:217 
0.4523012152922328 1:28 2:86 3:228 
0.3545683508933132 1:5 2:24 3:235 
0.3494735223547759 1:83 2:19 3:227 
0.5325890820875365 1:195 2:71 3:54 
0.5325777659243631 1:6 2:222 3:187 
0.5302629244660413 1:13 2:70 3:230 
0.504452204370416 1:68 2:30 3:249 
0.5327510367167885 1:150 2:15 3:160 
0.03718417825221787 1:77 2:46 3:209 
0.5325012254488038 1:120 2:37 3:178 
0.532577423901162 1:74 2:204 3:212 
0.5235749814340529 1:82 2:97 3:226 
0.4978380681906657 1:109 2:160 3:132 
0.4654638823163989 1:45 2:42 3:211 
0.480903780432317 1:18 2:76 3:235 
0.5325920098515515 1:249 2:238 3:34 
0.532623612292328 1:90 2:19 3:132 
0.5330105216914616 1:172 2:133 3:89 
0.532692586840201 1:212 2:99 3:67 
0.5325866608758623 1:207 2:199 3:107 
0.5319450216396039 1:246 2:178 3:14 
0.4013344909342118 1:68 2:10 3:234 
0.5325898177126691 1:46 2:171 3:53 
0.5325892571428793 1:172 2:43 3:226 
0.5238125493900843 1:31 2:74 3:244 
0.5325946524431948 1:241 2:129 3:159 
0.5325241099625955 1:75 2:26 3:250 
0.5168489855792657 1:51 2:7 3:201 
0.5006740551250963 1:249 2:89 3:246 
0.5326084120352632 1:51 2:197 3:223 
0.3985074449817599 1:211 2:94 3:132 
0.5330789057852308 1:196 2:130 3:228 
0.5325815785436036 1:17 2:33 3:165 
0.5326138109089968 1:127 2:4 3:32 
0.3737006174726028 1:16 2:32 3:232 
0.5323750238426248 1:3 2:9 3:35 
0.5076021005430447 1:183 2:221 3:148 
0.5325828404883806 1:92 2:14 3:192 
0.5319425005384887 1:54 2:89 3:175 
0.4123668187361851 1:39 2:55 3:248 
0.5324976810580422 1:31 2:25 3:230 
0.4977813797026397 1:235 2:94 3:206 
0.5329212944857926 1:96 2:99 3:230 
0.5325773317139293 1:168 2:126 3:153 
0.5325888689887048 1:54 2:216 3:196 
0.532596937161544 1:222 2:196 3:177 
0.5186049068719321 1:209 2:24 3:154 
0.4136271214227604 1:4 2:90 3:204 
0.5319054203700563 1:192 2:132 3:193 
0.5326084993202038 1:20 2:10 3:208 
0.5325875894636671 1:201 2:182 3:253 
0.5328311518272169 1:87 2:177 3:215 
0.5300719698826069 1:66 2:30 3:205 
0.5325155971540424 1:68 2:164 3:74 
0.4245349207418896 1:54 2:91 3:237 
0.4479606630080331 1:127 2:245 3:89 
0.4690329175851159 1:86 2:36 3:230 
0.5324865951993564 1:35 2:173 3:225 
0.4730093575959433 1:73 2:57 3:206 
0.5326190938127439 1:182 2:182 3:231 
0.5325942135609438 1:144 2:22 3:67 
0.5326219480146435 1:70 2:39 3:169 
0.5326313231937896 1:12 2:96 3:20 
0.323626009448093 1:16 2:93 3:215 
0.1569587688200725 1:9 2:28 3:227 
0.5326347965822491 1:95 2:207 3:191 
0.5327575040366014 1:98 2:122 3:57 
0.5326259029072373 1:231 2:169 3:70 
0.5328069087829808 1:26 2:13 3:0 
0.5326362078456661 1:179 2:146 3:150 
0.5321099166905029 1:88 2:147 3:55 
0.5162164773127873 1:34 2:70 3:237 
0.4475537380908237 1:239 2:159 3:117 
0.4959215644763819 1:42 2:41 3:240 
0.5305769152432117 1:11 2:81 3:221 
0.5316721454330571 1:88 2:36 3:224 
0.5325924701667279 1:170 2:192 3:91 
0.5325900058264164 1:93 2:193 3:11 
0.5325260773724378 1:250 2:98 3:39 
0.5330101999869343 1:163 2:15 3:247 
0.5325984682508279 1:182 2:180 3:102 
0.3433749391000405 1:16 2:27 3:217 
0.5325088128992772 1:75 2:119 3:54 
0.5325900493036058 1:238 2:201 3:14 
0.5323403371233735 1:17 2:67 3:227 
0.5325810536287136 1:73 2:245 3:81 
0.532578021861373 1:15 2:138 3:229 
0.5326238044062166 1:120 2:97 3:219 
0.2872324149942171 1:12 2:15 3:254 
0.5326259194573864 1:12 2:206 3:159 
0.5326148143894657 1:166 2:83 3:195 
0.5325841584451378 1:29 2:106 3:120 
0.5325850088732339 1:152 2:123 3:72 
0.5294683963287692 1:95 2:34 3:235 
0.467766727257583 1:9 2:81 3:203 
0.5325814217836573 1:138 2:155 3:20 
0.5325995730491516 1:50 2:60 3:30 
0.3968837401190576 1:16 2:32 3:234 
0.5319426956290563 1:229 2:199 3:161 
0.5101319756188641 1:86 2:50 3:210 
0.5250279860850022 1:83 2:14 3:236 
0.4581265339721678 1:25 2:31 3:218 
0.5325960607732438 1:151 2:41 3:96 
0.5009463354756948 1:73 2:19 3:204 
0.5161855796781711 1:95 2:11 3:244 
0.532809191564338 1:54 2:211 3:187 
0.5326150016616089 1:25 2:120 3:135 
0.4788553869550011 1:15 2:30 3:213 
0.5325795257681645 1:113 2:141 3:209 
0.5326257050346261 1:60 2:224 3:36 
0.5327886812355093 1:77 2:47 3:21 
0.5327199297949045 1:248 2:140 3:236 
0.5325793684353469 1:225 2:136 3:116 
0.4237628656720274 1:30 2:91 3:254 
0.5325832141509224 1:235 2:64 3:245 
0.5327279888110539 1:92 2:176 3:183 
0.529802749236876 1:41 2:12 3:233 
0.532625035395538 1:240 2:86 3:46 
0.3229156026912164 1:46 2:10 3:220 
0.5325932505939194 1:102 2:199 3:3 
0.5323143203840774 1:78 2:5 3:117 
0.4220068186601763 1:50 2:25 3:205 
0.3425001613461863 1:94 2:6 3:233 
0.4830929833698022 1:58 2:75 3:231 
0.504157177019285 1:8 2:42 3:246 
0.05868580352283551 1:36 2:90 3:255 
0.4486702677061517 1:93 2:27 3:213 
0.532541272640507 1:201 2:231 3:73 
0.3269216148507693 1:56 2:53 3:229 
0.5326081864891195 1:125 2:46 3:99 
0.5327450275981309 1:171 2:222 3:208 
0.4424700027482655 1:9 2:11 3:212 
0.5331137882050394 1:3 2:234 3:48 
0.5302591219798339 1:37 2:12 3:253 
0.5325894976578001 1:193 2:40 3:190 
0.5326200162474577 1:176 2:220 3:6 
0.5324903685766713 1:225 2:174 3:122 
0.5315366971738413 1:37 2:39 3:251 
0.5326122132163758 1:128 2:2 3:47 
0.5326257812900099 1:244 2:232 3:219 
0.4470542019748507 1:66 2:7 3:255 
0.5326260062641683 1:214 2:101 3:194 
0.5326253494276088 1:147 2:51 3:194 
0.5247553516928232 1:27 2:49 3:245 
0.5325870866626352 1:245 2:255 3:47 
0.53258612282131 1:190 2:152 3:152 
0.532618617855958 1:57 2:102 3:143 
0.3519889619968995 1:68 2:232 3:10 
0.5063243041854228 1:47 2:7 3:254 
0.4392595083164051 1:41 2:60 3:244 
0.5326184572393149 1:207 2:138 3:9 
0.4288707616236777 1:96 2:26 3:246 
0.3512260358128614 1:19 2:59 3:253 
0.5325119821600081 1:177 2:225 3:50 
0.5152422863112909 1:57 2:11 3:248 
0.5326221559113333 1:33 2:158 3:234 
0.468591905245504 1:0 2:98 3:225 
0.4915768363699044 1:62 2:65 3:251 
0.532626102819308 1:55 2:175 3:230 
0.5326186237362621 1:254 2:50 3:27 
0.5256937877568639 1:90 2:166 3:169 
0.08385338414741556 1:14 2:20 3:237 
0.5321510648889387 1:94 2:81 3:140 
0.5260473286421929 1:61 2:2 3:219 
0.509006470669252 1:92 2:7 3:238 
0.507197510475488 1:2 2:50 3:249 
0.5068463651063093 1:9 2:64 3:216 
0.5326323335647496 1:86 2:124 3:178 
0.5292348925204824 1:40 2:27 3:234 
0.5326371756575101 1:115 2:185 3:213 
0.5326445934413195 1:121 2:82 3:155 
0.5229161410474055 1:6 2:61 3:241 
0.5326252678531037 1:101 2:102 3:246 
0.5326455151226694 1:190 2:250 3:207 
0.5093586412859598 1:45 2:23 3:226 
0.5326572746214325 1:49 2:120 3:97 
0.5316551869314575 1:225 2:57 3:157 
0.5326018942664323 1:217 2:35 3:217 
0.5255014744871245 1:1 2:100 3:239 
0.5326536598231755 1:1 2:232 3:250 
0.5326711392513666 1:182 2:161 3:253 
0.5097183287871569 1:72 2:59 3:222 
0.5326082259259536 1:5 2:197 3:138 
0.5291546624649928 1:68 2:46 3:220 
0.5173805426274787 1:9 2:20 3:215 
0.5327437186889172 1:22 2:27 3:48 
0.5230225427006063 1:92 2:173 3:70 
0.4948561477388237 1:62 2:3 3:224 
0.5328164014252368 1:104 2:178 3:195 
0.5325693598005649 1:27 2:65 3:20 
0.4450762582186953 1:23 2:21 3:218 
0.4684343846873615 1:63 2:47 3:255 
0.5326209754413136 1:238 2:59 3:105 
0.5326196692010587 1:147 2:99 3:158 
0.5320645742326793 1:193 2:176 3:207 
0.5326761059307679 1:196 2:186 3:81 
0.5326620843969834 1:79 2:56 3:180 
0.367089090094843 1:44 2:42 3:221 
0.5326198005444731 1:243 2:103 3:115 
0.522645178048363 1:77 2:71 3:209 
0.5306988232802208 1:21 2:59 3:249 
0.4094767099372641 1:8 2:21 3:212 
0.5325925583756008 1:192 2:45 3:208 
0.4586164544954411 1:75 2:14 3:248 
0.42589892637375 1:55 2:73 3:208 
0.5326030093429324 1:209 2:224 3:76 
0.5325859264996695 1:66 2:22 3:126 
0.5325867359112847 1:158 2:135 3:162 
0.5326318383831605 1:149 2:184 3:190 
0.5325927389723408 1:93 2:152 3:129 
0.3937690731751807 1:85 2:12 3:234 
0.5326331492703722 1:170 2:160 3:11 
0.5328491899320444 1:128 2:104 3:77 
0.5331749833860091 1:160 2:177 3:117 
0.4944699101252346 1:76 2:26 3:241 
0.4977952503876887 1:170 2:244 3:226 
0.5329929874369923 1:165 2:20 3:141 
0.4896880941375653 1:35 2:36 3:247 
0.2952266919709216 1:14 2:10 3:217 
0.5204810931962993 1:90 2:100 3:250 
0.428734682197589 1:58 2:12 3:236 
0.533170207220437 1:150 2:251 3:62 
0.5326138433647504 1:18 2:11 3:20 
0.5325882103426639 1:89 2:179 3:142 
0.5331657591792544 1:123 2:82 3:5 
0.5331624206594117 1:245 2:232 3:100 
0.3905560801437063 1:79 2:63 3:229 
0.5273096780566192 1:42 2:10 3:212 
0.5331640187302988 1:17 2:94 3:47 
0.5276508210841288 1:7 2:79 3:156 
0.5331659959620183 1:6 2:158 3:250 
0.5326195441375704 1:165 2:131 3:9 
0.5326764431175388 1:198 2:165 3:51 
0.5326900406687023 1:242 2:127 3:46 
0.3365345638724538 1:41 2:81 3:205 
0.3223489005680948 1:36 2:17 3:243 
0.4291081943458541 1:87 2:99 3:251 
0.5331359477412028 1:101 2:110 3:117 
0.5286855985462231 1:68 2:67 3:227 
0.5327351116995869 1:226 2:167 3:175 
0.532839777099978 1:159 2:130 3:59 
0.5326437972048452 1:14 2:4 3:111 
0.5325777359460508 1:43 2:188 3:164 
0.5262057262697866 1:21 2:92 3:251 
0.5324489141078104 1:40 2:34 3:11 
0.4987151503667741 1:85 2:76 3:204 
0.5307921653652078 1:27 2:52 3:212 
0.5326255178725826 1:178 2:7 3:17 
0.5105441155232733 1:52 2:84 3:230 
0.5326688405067816 1:199 2:224 3:186 
0.5323750810940735 1:73 2:38 3:148 
0.5317265265953738 1:26 2:27 3:234 
0.451878277110522 1:58 2:49 3:233 
0.4926913687745288 1:84 2:72 3:235 
0.5257114034108858 1:99 2:19 3:233 
0.5321761122577329 1:142 2:129 3:211 
0.5325926678986408 1:52 2:161 3:82 
0.466711090514197 1:64 2:10 3:234 
0.5326617792182469 1:161 2:73 3:43 
0.5325989040917296 1:202 2:84 3:106 
0.521218079819687 1:19 2:85 3:219 
0.03187980948470695 1:90 2:78 3:235 
0.5326261878567109 1:74 2:29 3:17 
0.5326590111955445 1:250 2:33 3:241 
0.5064285322614841 1:62 2:13 3:241 
0.5326259513721244 1:245 2:44 3:56 
0.5192848496713973 1:128 2:105 3:72 
0.532626678198812 1:146 2:243 3:206 
0.5318616402701152 1:59 2:11 3:200 
0.5326546194019257 1:136 2:203 3:221 
0.5325794463479437 1:69 2:149 3:66 
0.4486780636650765 1:41 2:33 3:212 
0.5326157403646983 1:226 2:57 3:206 
0.5326107780765335 1:121 2:59 3:106 
0.53258501773327 1:90 2:39 3:120 
0.5326028603135403 1:3 2:112 3:217 
0.5326231244342547 1:21 2:34 3:27 
0.5326573039795022 1:13 2:121 3:123 
0.44091480081249 1:20 2:82 3:242 
0.449744491417601 1:53 2:42 3:202 
0.5142411551845276 1:153 2:179 3:185 
0.5326255506900144 1:231 2:170 3:221 
0.5325918360373859 1:196 2:47 3:160 
0.528584033509113 1:68 2:81 3:236 
0.5325795631317327 1:99 2:164 3:137 
0.532597577643515 1:211 2:201 3:160 
0.5326479840130804 1:225 2:126 3:167 
0.5326073491086554 1:3 2:192 3:110 
0.5325774238896537 1:53 2:223 3:233 
0.3175378821827616 1:27 2:12 3:215 
0.5326078554150673 1:35 2:161 3:105 
0.5050550312126809 1:51 2:16 3:250 
0.5326874975124365 1:120 2:64 3:138 
0.526506046791801 1:35 2:7 3:203 
0.2533779158681364 1:0 2:67 3:243 
0.5326139680079316 1:147 2:155 3:131 
0.5325915282283951 1:188 2:109 3:227 
0.5326237621313574 1:254 2:38 3:30 
0.5322402155344426 1:13 2:0 3:204 
0.5326264616599069 1:245 2:152 3:107 
0.5326231774319733 1:58 2:236 3:201 
0.5260909413262203 1:12 2:44 3:211 
0.532642660734193 1:242 2:37 3:224 
0.5193763262504162 1:72 2:62 3:244 
0.5326365762244123 1:241 2:160 3:188 
0.4432619575670286 1:67 2:49 3:216 
0.5331690226220518 1:139 2:94 3:166 
0.5298192020367352 1:6 2:50 3:201 
0.5326374205357949 1:23 2:173 3:65 
0.5294410316335025 1:5 2:20 3:206 
0.5319747725038021 1:3 2:32 3:250 
0.2984653678151948 1:56 2:91 3:230 
0.5326196854613177 1:227 2:139 3:105 
0.4460696845738047 1:40 2:42 3:233 
0.4728967830219404 1:1 2:75 3:241 
0.5326257641700934 1:162 2:11 3:215 
0.5325951655131235 1:246 2:225 3:118 
0.5071864020636133 1:89 2:85 3:42 
0.4715585891164334 1:19 2:40 3:225 
0.5256388616291456 1:21 2:43 3:204 
0.5287177578177812 1:30 2:15 3:200 
0.4909123997004272 1:26 2:61 3:238 
0.3018355585303309 1:80 2:6 3:240 
0.4484151237022985 1:47 2:100 3:224 
0.5193373393521368 1:254 2:54 3:117 
0.5305345058631332 1:7 2:16 3:245 
0.5325933044373561 1:104 2:158 3:81 
0.4899929991191015 1:91 2:19 3:212 
0.5257390945413204 1:167 2:120 3:53 
0.5325865257020461 1:138 2:164 3:176 
0.5326368947397547 1:206 2:255 3:171 
0.5326041946748206 1:137 2:89 3:242 
0.5311914419036602 1:27 2:8 3:200 
0.5058109224002172 1:104 2:31 3:14 
0.5325789652583786 1:5 2:119 3:214 
0.5328652661229232 1:81 2:134 3:178 
0.5325743618523409 1:138 2:223 3:151 
0.3527628336309786 1:84 2:20 3:227 
0.5326319619592057 1:142 2:191 3:131 
0.5328022519947245 1:214 2:73 3:117 
0.4980108939760581 1:69 2:64 3:206 
0.5330121706526764 1:218 2:153 3:85 
0.5326217416904647 1:108 2:193 3:71 
0.5326366125801818 1:254 2:93 3:58 
0.5325251405983025 1:215 2:77 3:130 
0.5327130764235856 1:83 2:151 3:20 
0.532626580061887 1:7 2:122 3:194 
0.5326222255608553 1:105 2:82 3:31 
0.532635656612644 1:83 2:238 3:24 
0.5326356649830351 1:202 2:220 3:169 
0.4640207184157449 1:59 2:90 3:239 
0.5325868649923522 1:196 2:213 3:232 
0.5326251274588882 1:164 2:65 3:241 
0.4608687527411813 1:95 2:54 3:206 
0.5327938853942187 1:33 2:238 3:183 
0.5326361512952476 1:49 2:98 3:134 
0.3483379682029509 1:37 2:92 3:211 
0.5322555418891466 1:74 2:255 3:94 
0.5324365715100692 1:25 2:233 3:73 
0.532603344003119 1:178 2:186 3:30 
0.4612209816983993 1:13 2:17 3:253 
0.4225577438943847 1:207 2:151 3:76 
0.5127572156704104 1:94 2:67 3:249 
0.5325883918115621 1:96 2:28 3:57 
0.5326064258342655 1:169 2:49 3:40 
0.3084768969607506 1:65 2:31 3:212 
0.5325888192267567 1:203 2:188 3:184 
0.3096259776370935 1:186 2:243 3:59 
0.5326396566839864 1:218 2:236 3:116 
0.532605829227413 1:246 2:74 3:137 
0.5208662185725769 1:34 2:75 3:231 
0.5198543435951473 1:10 2:14 3:235 
0.5326344018180813 1:2 2:233 3:85 
0.5325914652264584 1:144 2:78 3:180 
0.532163446500969 1:12 2:0 3:235 
0.5242716282048078 1:15 2:56 3:230 
0.5325848162036393 1:215 2:245 3:10 
0.5326202911602324 1:209 2:31 3:127 
0.5325005082253201 1:129 2:153 3:205 
0.5325796861751577 1:103 2:75 3:28 
0.466601677523463 1:88 2:54 3:207 
0.5143625722560559 1:89 2:51 3:205 
0.5325785281696691 1:148 2:65 3:231 
0.5325788930879893 1:196 2:211 3:33 
0.4563119559274439 1:42 2:86 3:244 
0.5315226587789921 1:16 2:65 3:254 
0.3107165774202065 1:90 2:77 3:210 
0.5325428875479611 1:8 2:236 3:135 
0.5325800394093628 1:219 2:233 3:30 
0.5326264051298049 1:214 2:10 3:236 
0.5315167976615864 1:59 2:27 3:237 
0.5325049908836519 1:37 2:206 3:101 
0.5312660209970539 1:251 2:230 3:58 
0.5326234640191528 1:73 2:214 3:71 
0.5326076301576349 1:11 2:48 3:136 
0.5126443921024175 1:15 2:42 3:222 
0.5325842437294155 1:150 2:66 3:114 
0.5224458465456996 1:28 2:89 3:221 
0.3899277005758262 1:75 2:74 3:250 
0.5321133232967378 1:25 2:73 3:212 
0.5325345494967318 1:3 2:20 3:65 
0.5325978739747879 1:125 2:128 3:77 
0.4228132515585446 1:80 2:0 3:227 
0.444954705949997 1:61 2:96 3:214 
0.3711352955666373 1:66 2:49 3:229 
0.5325853295008683 1:59 2:23 3:114 
0.5325876469206615 1:222 2:119 3:192 
0.5310319628630369 1:48 2:52 3:200 
0.5325974566674454 1:82 2:202 3:102 
0.5324183147380259 1:245 2:25 3:77 
0.3712302386968996 1:89 2:31 3:224 
0.5322415438893358 1:188 2:32 3:190 
0.5325796400676399 1:105 2:154 3:208 
0.5321150886131993 1:208 2:229 3:173 
0.3081295212662802 1:53 2:34 3:253 
0.5306267464608323 1:12 2:99 3:224 
0.5277906654428117 1:97 2:29 3:211 
0.5325878173010394 1:102 2:21 3:117 
0.5327161812474874 1:130 2:95 3:96 
0.5330615892128108 1:245 2:106 3:1 
0.3577056976827252 1:47 2:7 3:219 
0.520796799119976 1:28 2:76 3:246 
0.5073130849547663 1:0 2:60 3:244 
0.4491604039948645 1:42 2:69 3:215 
0.532582754520289 1:27 2:100 3:23 
0.5286600906291862 1:62 2:56 3:246 
0.2095622806737195 1:3 2:99 3:208 
0.5299040896653535 1:67 2:68 3:217 
0.5330715499483392 1:46 2:48 3:52 
0.449628685093383 1:5 2:76 3:238 
0.532719951598366 1:91 2:140 3:185 
0.416829428857576 1:34 2:30 3:248 
0.4484469186723672 1:30 2:224 3:22 
0.4534617763416123 1:11 2:52 3:206 
0.494792949368627 1:32 2:47 3:232 
0.5329323915765825 1:51 2:209 3:166 
0.5328454238061889 1:10 2:204 3:96 
0.5325859264987347 1:186 2:202 3:148 
0.4479786913381583 1:75 2:76 3:249 
0.5142668501449809 1:40 2:6 3:248 
0.5326337715469401 1:189 2:168 3:154 
0.4513104196032657 1:67 2:35 3:230 
0.3515397480200571 1:9 2:59 3:217 
0.5012702414417247 1:98 2:85 3:214 
0.5230493200152406 1:46 2:83 3:74 
0.5325256519684143 1:52 2:31 3:111 
0.3821482952522041 1:2 2:57 3:217 
0.4884894485471727 1:29 2:47 3:251 
0.3088823885066678 1:0 2:58 3:233 
0.4694508028064065 1:77 2:23 3:209 
0.5183747782438011 1:65 2:16 3:250 
0.5325868497359036 1:88 2:172 3:154 
0.5326199920245532 1:117 2:24 3:211 
0.5327295449755636 1:7 2:26 3:184 
0.5324652370009657 1:73 2:174 3:251 
0.5325894670565221 1:153 2:52 3:215 
0.5142052636614172 1:14 2:99 3:241 
0.3747450808253576 1:61 2:58 3:219 
0.5325954505014265 1:61 2:42 3:108 
0.5325777232368099 1:132 2:135 3:237 
0.5324173959653705 1:93 2:158 3:212 
0.4120695644457084 1:37 2:87 3:250 
0.5326161615854934 1:215 2:79 3:141 
0.5326265888129591 1:153 2:103 3:117 
0.5325869362740562 1:52 2:15 3:195 
0.5326204127641723 1:138 2:203 3:54 
0.5325786873639395 1:57 2:167 3:9 
0.5325893310504839 1:0 2:211 3:199 
0.5326286397638372 1:125 2:93 3:60 
0.4786085644825379 1:96 2:11 3:254 
0.5098587618882344 1:18 2:30 3:231 
0.4712314121399941 1:16 2:38 3:247 
0.5326179422781192 1:249 2:46 3:51 
0.5326180156021945 1:234 2:110 3:183 
0.5194888979932447 1:13 2:61 3:242 
0.5326626364809375 1:84 2:173 3:233 
0.5326500333040509 1:118 2:174 3:155 
0.5070680523785551 1:10 2:79 3:244 
0.5326211894983506 1:93 2:103 3:144 
0.5143134051310629 1:173 2:48 3:63 
0.5325558202993813 1:100 2:203 3:6 
0.5325928264606772 1:181 2:92 3:92 
0.5290863576653169 1:45 2:32 3:252 
0.4479820067687268 1:1 2:69 3:255 
0.4873655425116156 1:47 2:76 3:213 
0.5324482849586352 1:78 2:66 3:254 
0.5258286795613665 1:85 2:37 3:253 
0.5023724004218086 1:58 2:84 3:231 
0.4213062490621212 1:31 2:15 3:249 
0.5325975869455827 1:229 2:33 3:249 
0.5191802334547908 1:131 2:104 3:73 
0.532597570526958 1:154 2:75 3:27 
0.4500344926740956 1:80 2:25 3:211 
0.3920102359896516 1:40 2:21 3:235 
0.5309643405866165 1:30 2:8 3:238 
0.5329050373855035 1:114 2:160 3:185 
0.5326256977732131 1:156 2:241 3:143 
0.5193580230502751 1:60 2:54 3:3 
0.5328130241489135 1:170 2:199 3:185 
0.5325502206314452 1:126 2:112 3:118 
0.5326016079989542 1:191 2:89 3:238 
0.389479473445523 1:25 2:22 3:238 
0.5325937868491486 1:208 2:213 3:209 
0.5326355383448282 1:175 2:247 3:60 
0.5019021392217716 1:45 2:53 3:248 
0.5326632611631098 1:222 2:28 3:49 
0.5326253153719613 1:133 2:2 3:243 
0.5240112375886069 1:97 2:81 3:219 
0.475543138267826 1:54 2:92 3:231 
0.5325884981838798 1:255 2:162 3:94 
0.5326243204546413 1:120 2:76 3:111 
0.5309251222460614 1:25 2:37 3:64 
0.5326205649184346 1:135 2:117 3:244 
0.5307409753371364 1:23 2:39 3:67 
0.532591982378624 1:167 2:141 3:2 
0.5326249257026395 1:224 2:99 3:212 
0.5163509077534704 1:54 2:14 3:215 
0.5327956093401651 1:105 2:5 3:153 
0.5323696326607975 1:49 2:91 3:42 
0.505756591293506 1:81 2:63 3:225 
0.5239143572247805 1:18 2:56 3:232 
0.5259109585558914 1:41 2:0 3:226 
0.532611180467534 1:163 2:230 3:94 
0.5331240551821921 1:237 2:42 3:14 
0.5325932212138925 1:81 2:153 3:83 
0.4033775155779804 1:15 2:79 3:210 
0.5325766434254069 1:111 2:12 3:62 
0.4359655445084894 1:41 2:15 3:236 
0.5326007486587712 1:175 2:33 3:193 
0.5325861514685309 1:92 2:122 3:123 
0.3238384521517771 1:70 2:63 3:250 
0.5298656911012631 1:78 2:19 3:236 
0.5326304296795396 1:190 2:224 3:197 
0.5325877187075889 1:72 2:37 3:35 
0.5142401538538499 1:93 2:78 3:234 
0.5325890207255557 1:110 2:215 3:106 
0.3436556427318392 1:18 2:80 3:240 
0.5325920320894582 1:144 2:104 3:119 
0.5326065062600164 1:136 2:205 3:130 
0.5326156365048926 1:70 2:188 3:154 
0.5326321532008984 1:214 2:98 3:89 
0.5321367709546523 1:26 2:90 3:108 
0.5327065755093505 1:207 2:54 3:22 
0.5276641929113477 1:138 2:215 3:250 
0.5325829543931886 1:61 2:231 3:191 
0.3011269108435316 1:33 2:50 3:234 
0.5325517305352898 1:155 2:83 3:122 
0.5325889555126569 1:255 2:61 3:249 
0.5326155548540369 1:179 2:207 3:183 
0.4811800450384213 1:49 2:40 3:242 
0.4872022406104591 1:45 2:95 3:226 
0.5324774118704815 1:234 2:178 3:193 
0.5327380892235475 1:80 2:105 3:188 
0.5325532502037351 1:117 2:173 3:166 
0.4584740222593794 1:75 2:91 3:240 
0.4473005430003502 1:13 2:31 3:225 
0.5325983273557136 1:84 2:131 3:46 
0.5326202756656875 1:44 2:208 3:156 
0.2257822566568153 1:94 2:28 3:228 
0.4654917665317228 1:36 2:88 3:219 
0.5327174794005098 1:174 2:77 3:92 
0.5325347245467082 1:66 2:10 3:250 
0.5326028051535623 1:43 2:154 3:3 
0.5326099190200542 1:211 2:223 3:224 
0.532575860298246 1:209 2:90 3:102 
0.5325865281159572 1:209 2:11 3:34 
0.5325787584544315 1:132 2:202 3:56 
0.4992237865202974 1:51 2:37 3:223 
0.5325775045885633 1:16 2:17 3:23 
0.5325941137895983 1:115 2:202 3:190 
0.5326151252201108 1:19 2:73 3:126 
0.5325786474122357 1:82 2:181 3:168 
0.4460678817722307 1:68 2:3 3:240 
0.5325727537036135 1:37 2:74 3:203 
0.5325216042986637 1:104 2:2 3:16 
0.5326612373701205 1:127 2:46 3:157 
0.5331044347053135 1:41 2:216 3:143 
0.5303000254474344 1:0 2:71 3:239 
0.3458313745497023 1:51 2:16 3:221 
0.5330750616245927 1:255 2:223 3:29 
0.3271647526490706 1:90 2:89 3:245 
0.5325800394083972 1:64 2:213 3:179 
0.1096263367607249 1:78 2:24 3:211 
0.5325859146362377 1:246 2:232 3:64 
0.354167419583171 1:20 2:41 3:236 
0.5325901160357616 1:24 2:67 3:86 
0.5326247164452161 1:251 2:133 3:133 
0.5153509830037692 1:94 2:5 3:205 
0.4580500037629148 1:26 2:29 3:222 
0.4946481352032234 1:0 2:14 3:242 
0.4230655299259926 1:90 2:10 3:235 
0.5313434038858658 1:94 2:55 3:249 
0.5326253153719613 1:5 2:58 3:111 
0.5147756684982421 1:79 2:87 3:252 
0.4213078958227998 1:77 2:178 3:44 
0.5095016822024649 1:94 2:88 3:231 
0.5326158138407653 1:183 2:153 3:207 
0.3863164585022054 1:75 2:22 3:240 
0.532626067323841 1:172 2:175 3:103 
0.5319253938269717 1:31 2:2 3:216 
0.532625128845619 1:202 2:103 3:251 
0.471605288805772 1:32 2:53 3:227 
0.525698742453541 1:46 2:82 3:234 
0.2767905918721011 1:42 2:22 3:245 
0.4988169727317728 1:0 2:19 3:252 
0.4531012980905045 1:37 2:91 3:254 
0.5325925947914304 1:143 2:133 3:9 
0.5325298744404918 1:79 2:47 3:218 
0.4541330307767973 1:95 2:27 3:234 
0.3893852419275705 1:250 2:102 3:214 
0.3527723804424546 1:225 2:240 3:242 
0.5325307678408603 1:83 2:182 3:159 
0.4213324177157622 1:28 2:169 3:161 
0.5326455151225733 1:233 2:53 3:24 
0.4631822640920384 1:48 2:44 3:246 
0.5325916183212291 1:244 2:241 3:21 
0.4922528808485954 1:83 2:70 3:214 
0.5326089313486837 1:18 2:135 3:39 
0.4974854657609164 1:53 2:56 3:219 
0.5326068890457233 1:212 2:151 3:230 
0.5326230470707116 1:40 2:95 3:104 
0.3265297693617354 1:68 2:53 3:245 
0.5326271511582006 1:189 2:175 3:21 
0.5322884295748544 1:72 2:206 3:71 
0.5325898212004916 1:122 2:222 3:212 
0.5261510061901904 1:91 2:0 3:203 
0.5322315688463981 1:6 2:92 3:214 
0.5321459075936654 1:230 2:118 3:130 
0.5325958234049235 1:53 2:176 3:72 
0.4776853091899041 1:38 2:42 3:217 
0.5201261590274626 1:17 2:79 3:246 
0.5326026656948328 1:209 2:127 3:200 
0.5329927756383461 1:155 2:197 3:87 
0.5313174021935037 1:245 2:181 3:97 
0.5325466240348053 1:102 2:116 3:155 
0.5321364179111725 1:227 2:168 3:254 
0.467116449728919 1:99 2:50 3:214 
0.5325821785626861 1:26 2:169 3:99 
0.5328036934606979 1:9 2:202 3:234 
0.5325788607258832 1:252 2:214 3:146 
0.5313977818243689 1:25 2:37 3:225 
0.5325892170938894 1:170 2:193 3:75 
0.532533836277436 1:71 2:74 3:246 
0.2965773422770792 1:71 2:82 3:212 
0.5323769019064983 1:19 2:98 3:203 
0.5325828625767685 1:159 2:43 3:52 
0.5323589994795038 1:198 2:80 3:190 
0.5274267671418058 1:41 2:18 3:252 
0.5326242134644288 1:6 2:60 3:5 
0.5199903303124171 1:48 2:21 3:205 
0.4769529233324812 1:55 2:83 3:244 
0.4586470059132845 1:12 2:9 3:200 
0.5000153342641568 1:219 2:59 3:246 
0.5325829986653798 1:70 2:202 3:163 
0.5325903355816495 1:74 2:2 3:11 
0.5182770841779947 1:26 2:10 3:236 
0.5325790726468238 1:117 2:99 3:198 
0.5326191522847092 1:177 2:189 3:43 
0.4889920197809526 1:75 2:49 3:222 
0.5325978698975971 1:181 2:9 3:242 
0.5325938347658237 1:141 2:163 3:254 
0.3211507096337444 1:19 2:22 3:232 
0.5326063965179115 1:247 2:190 3:53 
0.5325990830874294 1:106 2:52 3:155 
0.532594043025328 1:47 2:148 3:171 
0.5325446189146213 1:200 2:120 3:152 
0.5325971577136377 1:21 2:168 3:127 
0.5325541750460788 1:117 2:7 3:191 
0.4216222802108234 1:128 2:190 3:144 
0.5325795848670209 1:30 2:126 3:52 
0.532585302741285 1:80 2:60 3:165 
0.5327364756055719 1:208 2:55 3:49 
0.5326350063580045 1:204 2:191 3:252 
0.5326549970599328 1:176 2:150 3:227 
0.5325800954409458 1:253 2:194 3:222 
0.5326070315861102 1:255 2:122 3:242 
0.3354510322963998 1:54 2:86 3:219 
0.5326186763055449 1:150 2:213 3:73 
0.4635449746533268 1:22 2:30 3:234 
0.5073027844360656 1:184 2:41 3:204 
0.5326188418858748 1:98 2:177 3:249 
0.5326253015709292 1:238 2:70 3:31 
0.5326003164573407 1:38 2:181 3:90 
0.527673083835819 1:11 2:80 3:232 
0.5326262909105721 1:92 2:2 3:98 
0.5326774272490389 1:31 2:8 3:160 
0.5326061994127699 1:190 2:171 3:239 
0.5325976370503767 1:97 2:203 3:134 
0.5326266871722108 1:122 2:180 3:195 
0.5326325784223265 1:3 2:142 3:226 
0.52509313782537 1:38 2:9 3:236 
0.531934776432988 1:51 2:31 3:245 
0.4421216995124769 1:59 2:3 3:252 
0.5331640102094475 1:231 2:194 3:66 
0.5325090290077119 1:43 2:211 3:118 
0.5257110989920338 1:154 2:100 3:149 
0.3509333668933903 1:37 2:91 3:228 
0.5258446396653622 1:53 2:8 3:219 
0.5325971671560277 1:191 2:71 3:79 
0.3483068733970213 1:2 2:100 3:207 
0.5325081086512088 1:90 2:64 3:217 
0.5326163553141565 1:130 2:133 3:22 
0.532635903925768 1:47 2:155 3:37 
0.5313047479865973 1:133 2:217 3:243 
0.5326380612856889 1:121 2:11 3:172 
0.5136892485490008 1:95 2:40 3:202 
0.5326373892888737 1:39 2:0 3:65 
0.4689103655800737 1:23 2:49 3:247 
0.5326217582304628 1:94 2:216 3:247 
0.5327580895743373 1:29 2:230 3:156 
0.5325990573094699 1:223 2:38 3:135 
0.4697249753519634 1:24 2:55 3:253 
0.531469109944005 1:22 2:39 3:212 
0.531685014644675 1:30 2:59 3:239 
0.468926615210283 1:221 2:227 3:86 
0.5326214088384925 1:64 2:182 3:164 
0.5325904329132167 1:91 2:199 3:189 
0.5325949703299605 1:222 2:169 3:35 
0.5327731619882518 1:105 2:116 3:54 
0.5329476356677734 1:89 2:27 3:48 
0.5147163911427912 1:4 2:68 3:239 
0.5073577613347497 1:55 2:164 3:22 
0.5325895523724091 1:22 2:125 3:254 
0.42068961242481 1:56 2:45 3:250 
0.4481769846274894 1:47 2:75 3:230 
0.4453389129889196 1:4 2:80 3:253 
0.4483926620093693 1:57 2:39 3:219 
0.5326237051945497 1:120 2:241 3:28 
0.5330716209807911 1:144 2:221 3:43 
0.5326049147912553 1:207 2:192 3:93 
0.5328995647351988 1:203 2:110 3:226 
0.5325460881982498 1:18 2:127 3:137 
0.5326644719439804 1:24 2:161 3:233 
0.5326366021203857 1:250 2:184 3:99 
0.5308352269741541 1:30 2:95 3:200 
0.5327152216539425 1:100 2:37 3:172 
0.5068929291054216 1:94 2:50 3:246 
0.5310981312787094 1:15 2:70 3:190 
0.5325792704986727 1:127 2:167 3:141 
0.5204946775567763 1:57 2:73 3:240 
0.5326197172381103 1:139 2:222 3:217 
0.5264329081645902 1:15 2:84 3:220 
0.5018769289766185 1:64 2:21 3:210 
0.5331044265752662 1:71 2:124 3:198 
0.5072684674697781 1:21 2:68 3:216 
0.5326098184867361 1:66 2:221 3:193 
0.532612079642322 1:74 2:182 3:89 
0.5261843316728991 1:40 2:41 3:248 
0.528897756672688 1:57 2:0 3:241 
0.5226985053025583 1:6 2:35 3:225 
0.4636299120920352 1:28 2:70 3:224 
0.5322661166596316 1:122 2:249 3:78 
